0.08616367605164597
0.010128103417103853
-0.04146513492076671
0.00016033076467893094
-0.057328708596294395
-0.012324042512340514
0.0080475285395523
0.0006613241446524297
-0.02351825889256492
0.09991022918619928
-0.032438887334722555
0.019160039446370247
0.06276606622693265
-0.014954262829607441
0.033406406148473816
0.14532367183175354
0.09660554003393501
0.15158974590325716
0.3358967773225889
0.12399875441978635
0.02205089690791308
0.08463752092071622
-0.38747356994259324
0.4909786522960947
-0.13914511850549052
-0.44064699272590907
0.2765830613346574
1.1400059590221387
-0.30580680492062184
0.1313064384491681
-0.3025293682926599
-0.0031059493046193916
0.5412701723191156
-0.42453798558013195
-0.08104300974322938
-0.15136913862572252
0.2570092108122503
0.028369807373876524
0.021050041869190492
0.10304665354069584
-0.04934259241985042
-0.015048908269207312
-0.09497342598924254
0.04858098488030337
0.08086576922228758
-0.1608829945590249
0.02108123671573082
-0.03727420377401856
-0.02048779659619918
-0.07407345005385724
-0.018847320727113513
-0.010814799915721665
-0.04646872724792712
-0.10040356172305438
0.1522846004231301
0.0072912347294225
-0.030833965232152122
0.00823828872936104
0.03191461841253179
0.02912476847719047
0.007300983931356394
-0.02043799037217705
0.01896274563451908
0.12430364842064921
0.002681577796409386
0.01139792291447391
-0.006905335238642092
-0.022476801331056662
0.004433846514230985
-0.03398340525872517
-0.021723158002051185
-0.013981088510087303
0.10083722925409973
0.006784775108219315
0.009510982888546455
-0.030122399783057207
0.040648464355474104
-0.006550718020425839
-0.03971315051148524
0.03847241729574393
-0.001872582514867224
0.03489140203190332
-0.035676115135572124
-0.008903475007096628
0.2108790408056757
-0.23457387742854624
-0.02066407634554031
0.4887718193599385
-0.5527794725418851
0.024130509686750477
0.9523044206885065
0.033001733448300256
-0.002666602510496866
-0.05408796301983552
0.010705695310292413
-0.049192285124744405
0.04725969851359515
0.017726566113326868
-0.03453246061558832
-0.08267632999837744
-0.007047780158034222
0.020217548966373837
0.0025201783721695713
-0.034210980506162315
-0.024683868950899707
0.022509399200942425
-0.04503988607417712
0.015260358802289818
0.025366767457841763
-0.26868390522175245
0.31173787586074453
-0.05250023041496549
-0.0683619571457216
-0.01492046605086303
0.06366111546534284
-0.11467371938749168
0.1297219998114958
0.15861149372555455
-0.01056195203269313
0.0034202959595384477
0.019673662723461487
-0.07139292551502721
0.0754147855671662
0.12847865307912426
0.07961479561993755
0.08300708101844194
0.27995816360862685
-0.00048064029411991636
0.0029227983850591424
-0.0006617224252401953
0.001796374174397945
0.00031005051742156884
0.0015691507388115322
-0.0023394309556476487
0.0010204840701454523
0.00027738527947372
-0.001970051664838517
-0.0008685928455920048
0.001004926472043638
-0.0020643229799404833
0.0005740701949008273
2.284383585677036e-05
-6.348773356011156e-05
-0.0023465135100961022
0.0005237426043961901
-0.12360617003991521
-0.0784556887458126
0.1608055765614709
0.0416886334054986
-0.07441251118070354
-0.050988838875879516
-0.0502970928999702
-0.07920651772135039
-0.07707302659232626
-0.032959229623569695
0.10954005884246129
-0.08473805493568473
-0.1449541655533578
-0.051864547871969875
0.28151552092139537
-0.017270968062097592
-0.19506190078821664
0.11459628826562958
