74.98229836164404,-3.031674391657969,69.19709699014207,71.55150994927541,48.226579002633954,73.58924656649847,19.02189815132944,10.601768182902365,-2.6459544862486393,-25.159389021903678,44.68318439948387,9.617695806482166,4.75558803745778,-3.7423470949758273,-25.053696111916963,-22.43916977904339,-27.509630912762418,-14.318121889154163,-11.06742310190183,-14.682079356983088,-19.070708871641937,-17.86712733141277,1.041348381553564,3.219171812514244,57.82507196161941,42.47426404408237,-42.03102173742561,55.929756354135954,-7.146808287899173,49.630039202990716,-20.35583001657109,-40.687466141783595,3.86430767513754,142.47458800575632,-13.626531266911948,-102.02394062654871,-23.832333446765457,-20.626883450438335,-28.83014645948665,-1.6159540206978005,-4.029068091031398,68.83863720261436,-16.636006795844388,-27.958564485107914,-22.234978692040546,-50.09168497388346,-11.893235174016228,59.548884156811475,9.008773251182307,7.589366331796468,8.232737213253419,-6.880672164987103,-25.17679147643483,128.48623336540268,-60.3919890288032,-26.821624654665477,-73.2185267909306,-45.769519764520886,39.49195836212487,-9.201836040076428,3.3779081347260798,-28.54277445464211,-10.197890222098863,27.30476760770473,2.31050167028572,3.729886509159582,0.9309455731666563,-6.60567011986767,0.9058461384254586,-7.381637240238389,-2.153247316681825,-6.676224107057706,3.649963994863989,3.8699933802172457,3.9139896918354613,0.7841958999883147,-6.448895874394518,-4.131767704976809,-0.9999846440883988,-2.454225480787554,1.0995448455756902,-0.15035545022994287,6.620607661568525,4.844555061556182,-0.6609128661089295,3.610734914840318,-4.3912649759293,4.787723183737905,-2.2856200790130385,-20.152564618064105,-4.4087686468169505,-3.7423470949758273,-4.077901660361175,3.942752535693145,-1.313865648539635,-3.353793830726182,-6.020255829646245,0.1322269657455518,-1.5175883794862328,4.491724445383945,-1.3065883568397292,-2.454169055139554,11.043833526529397,-5.654359433492098,2.2294680249525727,0.973222312213223,0.0
-23.78382691964587,0.9616245511727282,-21.948804105976123,-22.695606371855675,-15.29711189157074,-23.341961259220408,-6.0336045066565855,-3.3628019547787726,0.8392770682312329,7.980370927214998,-14.17317349823375,-3.050661521789044,-1.5084371279007116,1.187044642868191,7.946845922878801,7.1175376309658915,8.725850161284006,4.541601688224615,3.5105042290459614,4.657046287948763,6.049086903824649,5.667319797960621,-0.33030795549170433,-1.0210973374564594,-18.341682413071602,-13.47252040330322,13.331927242845827,-17.74050240990298,2.2669143926139403,-15.742279020655024,6.456717765369317,12.905761408483299,-1.2257296310984138,-45.19187882496599,4.322234290606951,32.36123456526262,7.559438776539809,6.5426938970427395,9.14470786362627,0.512568587228662,1.2779904086478031,-21.835103329518045,5.276817527759968,8.868248548855588,7.05276973803749,15.888709622985568,3.772445671500328,-18.888462810418822,-2.8575158196811676,-2.407290510016623,-2.6113629647700822,2.182497995374696,7.985890856261962,-40.754876853496285,19.15588940027656,8.507619697299459,23.224371705811365,14.517750990032251,-12.526555239378776,2.918753899281731,-1.0714473173296244,9.053555602704671,3.2346948718229886,-8.660869045793225,-0.7328739319058193,-1.1830922377962039,-0.29528900644010125,2.095269393603432,-0.28732765256444265,2.3414003883778993,0.6829940214445657,2.117648593180659,-1.157741411154123,-1.2275330944292544,-1.2414883969933488,-0.2487411024196087,2.04554176986778,1.3105659617606142,0.3171876858534192,0.7784620548080023,-0.34876744070199617,0.0476916296623556,-2.1000074706457954,-1.536656805730436,0.20963664171359656,-1.1452982389665003,1.3928765645737917,-1.518630157107246,0.7249816763571278,6.39224349394244,1.3984285986930465,1.1870446428682355,1.2934800533532815,-1.250611756972903,0.4167484041341865,1.0637984395923408,1.909580338198243,-0.04194140932085148,0.48136773800776184,-1.424741560528235,0.41444010137459397,0.7784441570124995,-3.503021791323512,1.793520724838939,-0.7071706627692893,-0.30869887338437285,0.0
0.00942393826475928,5.493522857300828e-08,-0.003235400641894365,-3.362160232269854e-07,-2.5100527219634625e-06,0.0008771089512662267,-0.056061677062941316,-0.05282700565144092,-0.30988884886418017,-0.028391962199855767,-0.07128599761295762,-0.07044945152620123,-0.03769194123081936,-0.13203259554829863,-0.43573622701095466,-0.027608683360035052,-0.0009016068266993973,-0.00409471813616176,-0.10553179929407373,-0.08878171592411045,-0.09071816887355842,-0.05431081419857824,-0.007144530629864411,-0.012933055841485415,-0.017405618175680267,-0.07190619722911418,-0.02425010613501996,-0.04456575009504336,-0.10249335871659697,-0.036839991851201216,-0.008702290815719394,-0.0656305717093188,0.06912985542393113,-0.003057097505979134,-0.044376326538559815,0.04822896352282694,-0.03499326449291907,-0.19278487480487147,0.10231579586995755,0.15998479453269226,0.1176972283287393,0.1002137465777868,0.09811293742593111,0.1295770824497662,0.11567284743339543,0.11486792065454085,0.07386032434415579,0.11184544065117089,0.1201523128115516,0.1110933357604877,0.11539229415246702,0.10566658074010338,0.4768331459642509,-0.018764733829347253,0.026134056612199356,0.05426104288239969,0.10659185854721925,0.04700762655935421,0.022807632166098244,-0.035127689702380144,-0.04930051501440697,-0.060783914390802614,-0.01671458634428401,-0.04766192587897667,-0.5537326043682101,-0.580242715696025,-0.5622869049909078,-0.5778839400204786,-0.6036331704893301,-0.5687834361468797,-0.5575590323852353,-0.5242945281570451,-0.5685831382782819,-0.5407903279433182,-0.5521687028953096,-0.6032141422767514,-0.5018572398202295,-0.559560692570007,-0.6016658351738503,-0.5174416258347048,-0.5053144804319428,-0.6246375879241841,-0.5327678921596743,-0.5381351252705804,-0.5603589947925502,-0.590250021238745,-0.5513096097277267,-0.5441392254932744,-0.5297840808525942,-0.5026630512960112,-0.5374869164367361,-0.5774473340229135,-0.5763597466760845,-0.5731668481473084,-0.5851683030800472,-0.537401256757071,-0.5772531230293773,-0.5797074406903786,-0.5593844666795492,-0.5080323864265909,-0.517507918742808,-0.5767458459992368,-0.559814590131676,-0.5482522797094879,-0.550548119554067,-0.5551471993830228,0.12889142553469388
5.493522857337277e-08,9.530070871624481e-11,-1.2071375369299065e-06,-8.275651747440776e-12,1.1437146699971943e-10,1.6925093030940506e-08,3.1504835651614933e-06,2.485274645050397e-06,8.53556770185517e-06,2.413294461327012e-06,3.283348333120487e-06,3.0561376542119004e-06,2.959526821313123e-06,2.159587545479927e-06,1.0109535152779107e-05,2.38004537338026e-06,2.7955887189459888e-06,2.764581745031919e-06,1.7582237038412181e-06,3.0492259983734717e-06,2.976213359850955e-06,2.753618278025378e-06,2.5379452340857446e-06,3.390700326580349e-06,2.8686700910839784e-06,2.4674536673683812e-06,2.820278471607682e-06,3.382022564099231e-06,1.9405385535086474e-06,2.7284809350695336e-06,2.9936044236780457e-06,-5.931410504680192e-07,-1.2086904541531443e-06,-9.94876512516842e-07,6.590670013395604e-08,-3.3136634083110194e-07,-1.3551688891201189e-06,-3.9678169871576105e-07,-3.111849113140774e-06,-5.54985947634973e-06,-2.6913247915675186e-06,-2.6917907580387386e-06,-6.666152032416069e-07,-2.8641447620260672e-06,-2.3969248890317e-06,-1.8858573531449373e-06,-1.8083937707569044e-06,-2.709975121525666e-06,-3.5774898474811827e-06,-2.941237474884887e-06,-3.094952819982973e-06,-2.5649806138234603e-06,-1.0344211335747582e-05,-1.7790426686398363e-08,-1.151448129167772e-06,-9.136854926363618e-07,-5.764413560966621e-07,-8.533789014362701e-07,-1.2810464999550413e-07,1.08628618324118e-05,8.634955167081885e-06,2.775064926964964e-07,5.803518336133857e-06,4.5359380710348145e-06,1.3413323734425386e-05,1.776534676206501e-05,1.379227832020938e-05,1.325469220814996e-05,1.1244490168953183e-05,1.693228610140373e-05,1.7062581884417454e-05,1.0954988658175432e-05,1.801955588280901e-05,1.6846913164110775e-05,1.7206863198416534e-05,2.0612412134994618e-05,1.0086235084892067e-05,1.894939999334624e-05,3.150960312486734e-05,1.1369475133058983e-05,1.0571468271179546e-05,1.715318693334846e-05,1.5950506521022054e-05,1.7177336102249315e-05,2.199319845478858e-05,1.7267406791497415e-05,1.8809948459468874e-05,1.5086800904522155e-05,1.0870074067134561e-05,7.523688836618548e-06,7.297455054067076e-06,1.7119897894279612e-05,9.00166254695279e-06,1.5355000451388612e-05,1.7291188898167444e-05,2.096062900244802e-05,1.5541410684134716e-05,1.882626670412617e-05,1.5062018254955298e-05,1.3699732698008094e-05,1.3344608016872352e-05,1.7492104979036458e-05,1.74932361200874e-05,1.5743772318832017e-05,1.4281777316780471e-05,1.676024315884231e-05,-4.307809894024917e-05
-0.003235400640518996,-1.2071375369425686e-06,9.120722007558175,-8.419145463322845e-07,-2.825406481467417e-05,-0.022110660847199252,-10.719456525744404,-9.995527987067144,-24.23940185497754,-10.259968337845159,-10.772476726876972,-10.652545338529716,-10.370774603104246,-11.082297010907425,-21.735449153504916,-6.02726419387588,-5.885308367595414,-6.287059478929398,-6.122259001509524,-5.947396296913455,-5.929559862811787,-6.207000312168111,-5.913309244447172,-5.657998451042601,-6.113092350585307,-6.113875238907798,-5.882731913867267,-5.970231490395521,-6.253232252440288,-6.357640312183556,-5.783356825121613,3.9225799151286935,3.9498826836088514,3.5513754088013108,3.290965727909406,3.041993070776749,3.840763833073958,5.610741724404061,3.5500907039184435,-0.6653707524700869,0.38199606121315266,2.1669502458596765,0.4936261471449249,-0.16370865596714845,1.3741663352629023,2.542656281113721,5.323423441610378,2.494530090896575,0.6890781261966776,2.22808042565844,2.1540722009504822,0.3341188855302399,13.570068588394417,-2.503635445788941,0.9875697941777508,0.8710035188746408,0.9000054056030108,3.0731179817947143,5.477713607232988,-7.088648070787274,-6.858397973785863,-6.575167660099815,-6.68366085148627,-6.959626177475661,-10.85319122953118,-10.245152455184913,-10.766832258671528,-10.224286299174365,-9.546728022069281,-9.575833977257302,-10.216870313956244,-10.840882624693583,-10.480286026070557,-9.850342239581536,-9.722761676192242,-10.79818895250617,-10.945846914216373,-10.917352472002591,-4.492753161408094,-10.73000447346235,-10.617847646460671,-9.432662761706032,-11.584790585498117,-11.487396517255796,-10.173785991051217,-9.87422454197202,-9.666599326860819,-10.311629665126036,-9.985801266246005,-10.630103063551235,-10.511081484673008,-10.07415090692505,-9.676346125064224,-10.410692588788756,-10.077362678382977,-9.889292477948375,-10.187167111839695,-11.311665246931335,-10.371964904501391,-10.743687956208154,-9.086510890990859,-9.033688367028148,-10.224909704984125,-10.710553148027952,-10.080309638085913,-10.708450960482946,23.171153259815206
-3.3621602323202054e-07,-8.275651748018214e-12,-8.41914547670427e-07,1.997829711714976e-08,2.694785311866299e-08,-2.3942486019013005e-07,0.00020176880542921435,0.00019245936878628978,-1.3243397956415539e-05,0.00018390227179489177,0.00014016762942582517,0.00017502668491662542,0.00019826952080898784,0.000173982941185698,-1.4540283284942135e-05,5.576628577440672e-06,6.859768632530184e-06,8.273023218202812e-06,1.1970889406870573e-05,9.033460295935654e-06,1.0439182198350475e-05,7.187424934189177e-06,1.1764637966160552e-05,1.1533967227644334e-05,2.6073169324308463e-06,-3.783670596604464e-05,8.119587745561362e-06,-5.313034675595683e-06,-8.740263299252123e-06,-0.00014490821346226272,9.682175930048971e-06,-1.4386719380978853e-05,3.927183341418492e-06,-1.2132066043583158e-05,-1.4978062881462073e-05,-1.5955715732968233e-05,-1.534929545425386e-05,-1.0303095143652477e-05,5.276841611717749e-05,4.3014379607401006e-05,5.786380686867888e-05,5.0164356744717144e-05,5.9209283561847134e-05,5.3712512914022456e-05,5.7264023705241525e-05,5.4450840271652465e-05,5.2315682066209464e-05,5.293505382792187e-05,5.612975657132432e-05,5.2425005651701465e-05,6.0618703404943045e-05,5.951642167352421e-05,0.0002508646881660795,1.0849378170575815e-05,5.56862978985587e-06,5.827138967207029e-06,3.291196230684868e-06,6.5890431345485605e-06,8.779428141158211e-06,6.3058941338155e-05,6.155055476468623e-05,6.474838914042504e-05,5.9101221085175776e-05,6.76024345735141e-05,-0.00019303779449118138,-0.00019891466188761239,-0.00017503882973655998,-0.00019138127855792606,-0.0001749824832454809,-0.000220046303573746,-0.000196758929296192,-0.00020178748923471032,-0.0001854727340461944,-0.00016451617507502495,-0.00018605123837541865,-0.00019679255723805683,-0.00020092692678951062,-0.00018729764390357272,-0.00026116007116133954,-0.0001775505027955288,-0.0001708721584628884,-0.000191834588106438,-0.00020753607580307302,-0.00019958229344038046,-0.00018992017668428176,-0.00017813596988667336,-0.00019416567548001518,-0.00020575418167383163,-0.00018217051684705975,-0.00020159600452742334,-0.00020111617460991265,-0.00019313983678822364,-0.0001949600866497846,-0.0001848144243915869,-0.00019577853563212155,-0.00019438930566927814,-0.00019725556910154247,-0.00018537348963710342,-0.00020758928053896632,-0.00018663723269521685,-0.0001670219359680303,-0.00019151063246147597,-0.00019940083492317104,-0.00020017588362263757,-0.0001762725144045388,-0.00020670382790584404,-0.00010230619042778562
-2.5100527221879093e-06,1.1437146699874395e-10,-2.8254064819870284e-05,2.694785311861368e-08,6.382389922411967e-06,-2.7900842486415413e-06,0.0014355801314049168,0.0013459060354431205,0.0005037823527447666,0.0014391241914723377,0.0013274656566728189,0.0013365864246132624,0.0015482952521618598,0.001703386341329351,0.0002650433400990953,4.1577536267334804e-05,5.2560380497835684e-05,0.00017909519619819383,-4.0785075823354204e-05,-0.00015427886372839557,2.6129458646535603e-05,0.0002018842588135542,-1.4156220766623959e-05,0.00013667006957883117,-1.8265527060818728e-05,-0.0007427275812476954,6.18694716732042e-05,-0.00020735776632402765,-0.00016635232716084983,-0.0006797277044175892,7.060914356820659e-05,-2.7297541764440306e-05,0.0007910184511049985,0.00011664442975093635,-3.514298964518492e-05,-2.57032355127922e-05,-7.973289876237194e-05,-0.00014396351589469889,0.0004975575649855722,-0.00044653984916736704,0.00044736428661389024,0.0003807897792250687,0.0005735916825965539,0.0005333216171773551,0.0005106652917976917,0.000559092771634421,0.0005931401234446572,0.0004905458950761745,0.0006044648466910444,0.00041579509871061173,0.0004327064065184609,0.0004836587619093135,0.0016712986775015675,-5.885533334237223e-05,7.668040532465011e-05,9.448681564467703e-05,0.0001241058452171313,0.00023602915893869512,-8.903420431169345e-05,-8.480505023211427e-05,-0.0001257450132151564,-0.00029010675618380626,-0.00035450174334665974,-0.0003008374161527604,-0.0030231693164993775,-0.0024776341209948967,-0.0029266027748038855,-0.00211045861885114,-0.002135550934735179,-0.002165614905322404,-0.0018655871763638857,-0.0021276135178601523,-0.0021422982622317935,-0.001455798298634072,-0.002166127708539698,-0.003519598273130947,-0.002140673380483329,-0.0024271668825923847,-0.016117790222964418,-0.002831854618524133,-0.0023928274269763472,-0.0025327927356963943,-0.002481194106356175,-0.002302538762742024,-0.002318296671333352,-0.0017641579282919322,-0.001916520574528574,-0.0020807576927192443,-0.0020049240659198546,-0.0021069230533081983,-0.0026163052598874048,-0.0019736842907948516,-0.0023705865772858997,-0.0024978011065183154,-0.002000015280072907,-0.0018780989102317432,-0.0022641091501469906,-0.001754923482753264,-0.00301937077357897,-0.0026104669428951895,-0.0019169235150566135,-0.0033598086611513916,-0.0023304102848394114,-0.0026655022082850113,-0.0016335574526450335,-0.0024975357163517994,0.0002526879506965434
0.0008771089512820246,1.6925093029617547e-08,-0.02211066084635444,-2.394248601888155e-07,-2.7900842485115675e-06,0.008227750585975614,0.19462177494247845,0.19336022878174966,0.10380559598177855,0.1936876436385904,0.15279806557786435,0.17994350071463228,0.21050340507273926,0.24347357439459158,0.08844115434358123,0.039637293412581764,0.05839354560296478,0.04633657067907638,0.035634572520857624,0.03394239514920132,0.028177656926142516,0.03453338449940699,0.02545011234574328,0.019118907393850443,0.018293933791744894,-0.012115165182202563,0.022745342931511047,0.011860211467847132,0.040193566652722126,-0.0043929276389178895,0.030862680096562435,-0.03537280373120413,-0.047903572009574395,-0.03734710774564786,-0.02292597155116291,-0.009362428122603255,-0.025313781715528776,0.007296178840142612,0.06087429125996352,0.056332946425665775,0.04906405701096879,0.03459483667410312,0.005319311891398764,0.06377331944444373,0.0484371865805614,0.07961714629377771,0.08135877664772503,0.05528371607229945,0.040447471893954784,0.05265449497141403,0.06454155900090564,0.02478543863440907,0.20480058501243115,-0.0008862801555346294,-0.017433341227718318,0.0065692083507633645,0.03603130310081532,-0.013839903469171798,0.028694495927165074,0.05747624811754798,0.06159476704083223,0.05815041633549401,0.06203396078226242,0.060784297316925105,-0.3205755501638394,-0.3209590583327487,-0.30239514271188855,-0.3249588667991318,-0.3156818601117815,-0.3643870480722262,-0.320988881568241,-0.32156076540820944,-0.32946054440028444,-0.34719255484672734,-0.3247392699284167,-0.3441960186618288,-0.33104630174997884,-0.32167714592483776,-0.35217548161123496,-0.2990063610820575,-0.319158014501844,-0.28756018000069394,-0.31112892382462637,-0.3322366682353724,-0.33108055187198954,-0.335664942352828,-0.32366621593576056,-0.3369684274384679,-0.336548339207275,-0.33119518493341327,-0.3126672668897685,-0.34479970618652145,-0.3069448170826617,-0.3270838888249748,-0.3110271054347033,-0.3452642962769256,-0.3233655371435507,-0.3386608960526583,-0.34668288041204376,-0.29910713099885783,-0.3717805310430133,-0.31572065361732427,-0.3243555287654801,-0.3126059894605928,-0.3431837761102938,-0.32848860981546957,-0.33632082053963225
0.0415660335034445,-1.658568752811902e-07,-11.078567640188284,0.00021928502553968742,0.0017665704453586905,0.23128410176121256,169224420835.16992,169224005389.719,-344496756085.6787,169224441983.14963,169224089558.4839,169223861187.53836,169223865614.5148,169224145395.78848,-344496684358.3728,-94477078192.7411,-94476913623.7909,-94476571591.56659,-94476581996.46935,-94476852331.55011,-94476538960.72089,-94476397776.4405,-94476717027.76321,-94476819300.0713,-94476209434.56465,-94477301581.61249,-94476793750.30896,-94476493142.67094,-94476685040.93263,-94476544394.9191,-94476641255.77403,60554498334.95491,60554440408.39741,60554310717.58691,60554414581.46903,60554376114.25869,60554437947.24615,60554318807.21816,147544758715.11307,147544782584.7057,147544740885.34622,147544732201.12805,147544639582.3749,147544797360.81873,147544871685.54263,147544607325.13364,147544784536.48257,147544642368.32428,147544606853.22128,147544649331.6308,147544764666.01093,147544647393.2108,661265394820.9474,57492196211.35942,57492022887.40304,57492140901.32412,57492415233.42132,57492007704.271904,57492257275.3445,223850649447.04144,223850512763.07785,223850680557.467,223850498533.17722,223850654855.0498,-294110812989.8236,-294110232229.4797,-294111107862.0151,-294109599280.7527,-294109952080.5738,-294109873110.41174,-294110984571.22095,-294110174033.60754,-294110023906.9071,-294111005650.04236,-294110078559.5845,-294109541590.1893,-294110581366.2139,-294109963983.4936,-294110609921.363,-294109876867.0147,-294110867005.1729,-294109942143.68,-294109698706.7355,-294110639931.39056,-294110708484.2061,-294110079995.11145,-294110008653.51996,-294110214059.8844,-294110015964.7286,-294109927300.9418,-294110784822.14844,-294110701791.26434,-294110405491.88165,-294110788278.90515,-294110434759.57526,-294110292594.44196,-294110068571.4782,-294109777881.26575,-294110153574.0938,-294110163297.0061,-294109771395.6073,-294109661718.9556,-294110424146.33636,-294109800295.10956,-294110020045.51794,-294110910054.4794,-270078668350.08383
0.044048879045113835,-7.180350178237258e-07,-10.354114044653356,0.00020997525705104584,0.0016768997373076012,0.23002387571626867,169224420810.24524,169224005416.72348,-344496756102.61163,169224441993.05777,169224089568.06815,169223861197.55545,169223865625.15424,169224145405.83386,-344496684375.377,-94477078193.95903,-94476913624.89145,-94476571592.94537,-94476581997.86078,-94476852332.88286,-94476538962.23103,-94476397777.91675,-94476717028.60518,-94476819301.27408,-94476209435.97783,-94477301582.18475,-94476793751.36507,-94476493145.78467,-94476685043.3601,-94476544394.64476,-94476641256.67625,60554498337.98738,60554440416.52956,60554310720.53039,60554414584.63196,60554376117.44551,60554437950.248375,60554318810.214905,147544758718.31,147544782620.81616,147544740886.3858,147544732203.1271,147544639583.41745,147544797362.10242,147544871687.01736,147544607326.02176,147544784538.35748,147544642368.269,147544606847.62045,147544649333.12512,147544764669.15152,147544647393.63596,661265394849.3942,57492196215.0394,57492022891.33075,57492140904.90229,57492415236.78753,57492007707.81066,57492257278.35409,223850649453.144,223850512769.97034,223850680563.92676,223850498539.52942,223850654860.7714,-294110813010.63324,-294110232251.1709,-294111107884.472,-294109599301.2932,-294109952101.878,-294109873132.4148,-294110984593.41876,-294110174054.82806,-294110023927.72595,-294111005671.98914,-294110078580.9566,-294109541612.5089,-294110581387.8316,-294109964006.86163,-294110609942.58594,-294109876889.4236,-294110867027.9066,-294109942165.20123,-294109698728.5266,-294110639952.2309,-294110708505.5595,-294110080016.679,-294110008676.7209,-294110214080.9194,-294110015986.6706,-294109927322.59735,-294110784843.731,-294110701814.0228,-294110405513.0571,-294110788300.4226,-294110434781.2432,-294110292615.1695,-294110068591.5066,-294109777901.9637,-294110153596.0166,-294110163319.82965,-294109771417.5921,-294109661742.24805,-294110424168.0273,-294109800317.8569,-294110020068.3909,-294110910075.90173,-270078668351.43134
0.05256816774635544,-1.574806586809523e-06,-17.1943313951139,0.00010548180604328347,0.001985030438615883,0.19902514376761649,-153142473430.42856,-153140968125.41208,-1366391822543.6743,-153142237904.61914,-153141457737.46063,-153140838611.4475,-153140439158.38824,-153141111470.52786,-1366391719618.5251,-11989608715.43037,-11990195546.518078,-11991190358.62761,-11990804444.800005,-11990331875.410692,-11991144076.547348,-11991783334.699835,-11990972174.502962,-11990289394.637117,-11992556042.030556,-11988673680.497942,-11990653760.079899,-11991699346.979763,-11990914075.431686,-11991155369.21838,-11991072147.532366,-18070552711.992805,-18070371318.65939,-18069879336.88801,-18070403011.17829,-18070298875.20954,-18070166532.648125,-18069866526.057785,79111401594.35765,79111328393.50499,79111380616.68669,79111523866.4647,79111900625.23666,79111291962.13898,79111136714.22665,79111964466.09668,79111378458.27545,79111955568.32964,79111824555.99754,79111717893.2644,79111500762.46085,79111713263.6169,1292363243681.3167,80302525777.10057,80303315603.17914,80302351259.02031,80301688187.50781,80303089436.03726,80302196327.42435,833940750918.9833,833940822407.3689,833940578426.5035,833940865781.6863,833940496634.292,-633212160812.8962,-633214234868.3942,-633211106416.2595,-633216500334.9619,-633215105180.2141,-633215419853.7881,-633211951505.6327,-633214600106.9048,-633215184770.8704,-633211982559.5026,-633214280970.3191,-633216809612.008,-633212661428.3223,-633214932384.1202,-633212703635.92,-633215815056.3295,-633211633187.546,-633215095438.0217,-633215778981.9573,-633212745194.4016,-633213000664.2147,-633214658165.3425,-633214585881.5697,-633213842292.2081,-633214200230.6177,-633215084202.7327,-633212132115.2241,-633212413181.8998,-633214080972.4697,-633212907215.6641,-633213717581.2872,-633213140153.9333,-633215048396.9243,-633215724693.9812,-633214558244.9261,-633214382543.1953,-633215509312.6213,-633215960356.0807,-633212884724.8112,-633215722611.5667,-633215006139.9098,-633212071828.354,-176940411135.27417
0.06890284584588623,-8.520671411626144e-07,-10.619058602468227,0.00020141919932271007,0.0017701266498636413,0.2303492939777267,169224420807.2286,169224005396.60977,-344496756098.6968,169224441992.41226,169224089565.93655,169223861195.28378,169223865621.34756,169224145403.46005,-344496684371.9906,-94477078195.59041,-94476913626.49428,-94476571594.34026,-94476581999.76337,-94476852334.54176,-94476538963.82355,-94476397779.37428,-94476717029.65886,-94476819302.84357,-94476209436.95813,-94477301584.11888,-94476793752.85939,-94476493145.05013,-94476685044.0722,-94476544397.03383,-94476641258.0618,60554498336.80682,60554440413.79465,60554310719.20842,60554414583.14948,60554376116.0307,60554437948.78448,60554318808.98269,147544758720.23834,147544782623.3582,147544740887.71667,147544732204.53015,147544639585.0625,147544797363.2888,147544871687.45477,147544607327.61908,147544784538.38095,147544642372.0264,147544606857.57483,147544649333.59357,147544764670.4679,147544647395.54175,661265394845.3983,57492196213.65125,57492022889.675896,57492140903.39264,57492415235.39976,57492007706.536736,57492257277.30221,223850649453.1193,223850512768.63022,223850680563.31805,223850498538.1063,223850654859.56247,-294110813011.0167,-294110232251.2776,-294111107884.6793,-294109599301.7359,-294109952102.18225,-294109873132.1278,-294110984593.1844,-294110174054.38837,-294110023928.02783,-294111005671.4876,-294110078580.9712,-294109541612.43365,-294110581387.0334,-294109964006.68616,-294110609942.5603,-294109876888.5707,-294110867028.42615,-294109942166.3668,-294109698729.69,-294110639952.3724,-294110708506.60425,-294110080016.8403,-294110008677.2224,-294110214081.512,-294110015985.6633,-294109927322.36224,-294110784843.06433,-294110701813.82214,-294110405513.56946,-294110788300.3862,-294110434781.1539,-294110292615.10944,-294110068591.1449,-294109777903.73755,-294110153596.42584,-294110163320.21344,-294109771418.44965,-294109661742.4083,-294110424167.6233,-294109800317.3473,-294110020067.8158,-294110910075.9739,-270078668346.80136
0.025926344472132493,3.0160364171596365e-08,-11.131423702056518,0.00015768340154397788,0.0016584612579034052,0.18946181610266324,169224420786.62445,169224005375.68234,-344496756099.99493,169224441969.99893,169224089576.577,169223861175.59207,169223865600.448,169224145382.64206,-344496684372.29236,-94477078195.27827,-94476913626.11964,-94476571594.00815,-94476581998.75066,-94476852333.71718,-94476538963.16501,-94476397778.91219,-94476717029.33998,-94476819302.29456,-94476209436.49788,-94477301584.39932,-94476793752.41827,-94476493144.2297,-94476685042.978,-94476544399.15283,-94476641257.77745,60554498339.12476,60554440416.6322,60554310721.36265,60554414585.608406,60554376118.15629,60554437950.84105,60554318811.12013,147544758715.6074,147544782617.59952,147544740883.17505,147544732197.886,147544639579.0704,147544797359.2451,147544871683.5374,147544607322.87955,147544784534.01086,147544642367.13562,147544606853.02454,147544649327.22064,147544764666.3975,147544647391.48343,661265394819.4833,57492196213.77504,57492022890.19413,57492140903.77988,57492415235.35697,57492007706.923355,57492257277.38569,223850649453.21893,223850512768.13345,223850680563.35715,223850498537.78415,223850654859.21045,-294110812996.8945,-294110232238.8035,-294111107871.02704,-294109599288.41724,-294109952091.05804,-294109873119.67365,-294110984579.6948,-294110174041.5069,-294110023914.5943,-294111005658.2981,-294110078568.32587,-294109541600.92804,-294110581374.054,-294109963994.50183,-294110609929.70935,-294109876880.59656,-294110867014.55334,-294109942155.1979,-294109698717.17194,-294110639939.45184,-294110708492.75555,-294110080004.2193,-294110008664.3817,-294110214067.8959,-294110015972.1038,-294109927309.4828,-294110784830.2398,-294110701800.07086,-294110405500.2538,-294110788286.52905,-294110434767.87604,-294110292603.3575,-294110068577.6485,-294109777889.7391,-294110153585.0991,-294110163310.32465,-294109771410.2261,-294109661731.1244,-294110424154.8171,-294109800304.3178,-294110020055.20874,-294110910064.25854,-270078668332.65894
0.027017801740374978,-2.3614515508571363e-07,-11.011675598320501,0.00019254388347400564,0.001667592337744344,0.2166099523618566,169224420807.20248,169224005396.6924,-344496756103.477,169224441990.869,169224089567.11487,169223861209.8041,169223865621.35068,169224145405.9786,-344496684375.9505,-94477078195.45891,-94476913626.35991,-94476571594.12108,-94476581999.33592,-94476852333.96803,-94476538964.10767,-94476397779.07367,-94476717029.6919,-94476819302.72443,-94476209436.9033,-94477301584.6844,-94476793752.8314,-94476493144.9521,-94476685042.40175,-94476544399.2454,-94476641258.10574,60554498336.71217,60554440413.12726,60554310718.63327,60554414582.933,60554376115.902954,60554437948.64681,60554318809.065414,147544758722.20477,147544782624.4512,147544740888.44745,147544732205.50574,147544639581.00644,147544797365.55875,147544871689.8749,147544607329.00677,147544784540.64127,147544642373.08292,147544606859.18866,147544649334.42838,147544764672.40747,147544647397.15607,661265394850.5981,57492196214.31113,57492022890.257,57492140903.83934,57492415235.85061,57492007707.128746,57492257277.46743,223850649451.03497,223850512766.7232,223850680561.66592,223850498536.5028,223850654857.5776,-294110813013.68896,-294110232254.73083,-294111107887.83405,-294109599305.89197,-294109952105.51135,-294109873135.2751,-294110984596.1706,-294110174057.50745,-294110023931.6931,-294111005674.72375,-294110078583.9417,-294109541617.7174,-294110581389.5507,-294109964009.48773,-294110609945.6459,-294109876892.9227,-294110867030.52563,-294109942171.78894,-294109698732.7227,-294110639957.6461,-294110708509.0018,-294110080021.4909,-294110008680.7417,-294110214085.046,-294110015988.3323,-294109927325.0138,-294110784846.8854,-294110701817.108,-294110405517.02496,-294110788302.98553,-294110434784.11285,-294110292618.11554,-294110068594.0456,-294109777907.20435,-294110153602.494,-294110163323.1808,-294109771423.9311,-294109661746.1003,-294110424171.0262,-294109800320.66534,-294110020070.53455,-294110910079.3426,-270078668340.64914
0.059458696793707015,-2.838201480019107e-07,-10.729824684681665,0.00021578605069135515,0.001879300793708478,0.24716777685928795,169224420812.77295,169224005402.8858,-344496756098.10394,169224441995.52722,169224089570.5652,169223861199.945,169223865652.77045,169224145408.1584,-344496684371.17255,-94477078193.87102,-94476913624.68431,-94476571592.82622,-94476581998.05841,-94476852333.13332,-94476538962.25056,-94476397777.67055,-94476717028.26193,-94476819301.2138,-94476209435.85007,-94477301587.10188,-94476793751.34229,-94476493145.25919,-94476685042.67453,-94476544395.7364,-94476641256.93198,60554498336.51685,60554440413.08332,60554310718.56205,60554414582.876656,60554376115.90308,60554437948.54866,60554318809.17901,147544758720.9828,147544782624.15872,147544740889.9208,147544732205.88544,147544639586.703,147544797365.87524,147544871690.15652,147544607329.267,147544784541.19617,147544642372.01874,147544606854.02493,147544649336.2774,147544764671.50803,147544647397.39304,661265394850.9205,57492196214.27182,57492022889.9719,57492140903.966995,57492415235.82523,57492007706.74479,57492257278.00871,223850649454.72968,223850512770.16327,223850680564.99442,223850498540.65298,223850654861.75864,-294110813018.3267,-294110232259.21014,-294111107893.9929,-294109599309.93896,-294109952109.6624,-294109873140.2966,-294110984601.19244,-294110174062.3705,-294110023936.01227,-294111005679.2203,-294110078589.10974,-294109541620.3319,-294110581395.3522,-294109964015.12317,-294110609951.2986,-294109876898.57837,-294110867037.1945,-294109942173.7756,-294109698738.8219,-294110639959.9209,-294110708514.00336,-294110080025.3622,-294110008684.80865,-294110214089.2765,-294110015993.1426,-294109927330.56964,-294110784851.8715,-294110701823.1119,-294110405521.20856,-294110788307.5799,-294110434788.83704,-294110292624.00714,-294110068599.925,-294109777912.7777,-294110153603.7436,-294110163329.14325,-294109771426.6548,-294109661751.0617,-294110424176.3769,-294109800324.76764,-294110020075.71234,-294110910084.1578,-270078668348.1867
-0.03479544744714586,-1.096454605514151e-06,-11.441204418982213,0.00019149889809716138,0.0020343838511121815,0.2801375111962684,169224421075.84036,169224005665.35794,-344496756039.3026,169224442259.4333,169224089834.55194,169223861466.36548,169223865889.95068,169224148009.6815,-344496684311.82684,-94477078145.59473,-94476913576.59697,-94476571544.45718,-94476581948.69357,-94476852283.64978,-94476538916.34831,-94476397729.11703,-94476716983.01181,-94476819253.58876,-94476209388.33125,-94477301536.27164,-94476793705.23296,-94476493096.80026,-94476684991.31557,-94476544349.43805,-94476641209.82162,60554498343.667175,60554440412.816956,60554310714.865845,60554414584.38911,60554376121.37845,60554437955.39595,60554318814.90673,147544758765.20956,147544782668.57425,147544740933.0768,147544732250.17307,147544639615.84686,147544797408.11954,147544871732.8307,147544607373.50494,147544784585.22852,147544642417.6413,147544606902.9243,147544649379.70773,147544764716.69843,147544647440.21207,661265395100.1654,57492196235.641235,57492022901.82745,57492140916.792366,57492415245.0098,57492007716.998146,57492257294.131226,223850649582.39478,223850512897.19495,223850680691.7304,223850498666.83832,223850654987.57355,-294110813117.85944,-294110232358.2515,-294111107991.5067,-294109599408.404,-294109952208.43494,-294109873239.0267,-294110984699.90466,-294110174161.96497,-294110024035.40955,-294111005779.1642,-294110078688.4591,-294109541719.5834,-294110581494.30255,-294109964113.15234,-294110610052.297,-294109876995.7482,-294110867135.891,-294109942273.2097,-294109698837.2927,-294110640060.53357,-294110708612.97205,-294110080123.73224,-294110008784.57056,-294110214189.4005,-294110016092.53894,-294109927428.6633,-294110784950.6626,-294110701921.15735,-294110405619.9537,-294110788418.9234,-294110434886.83057,-294110292721.9536,-294110068697.20764,-294109778010.05634,-294110153704.7865,-294110163428.4378,-294109771526.7866,-294109661849.90985,-294110424275.6076,-294109800424.46155,-294110020174.3261,-294110910183.3813,-270078668743.37894
-0.07367109019055566,6.272490313734961e-08,-14.690286598957886,0.0001041846987067921,0.0017463005433673393,0.18365025925205425,-153142473477.29663,-153140968172.34805,-1366391827068.4575,-153142237952.0891,-153141457783.9335,-153140838658.09692,-153140439205.63226,-153141111517.21613,-1366391719466.169,-11989608698.713491,-11990195536.402433,-11991190352.475496,-11990804434.81531,-11990331866.049194,-11991144060.863228,-11991783327.12993,-11990972167.214815,-11990289386.955696,-11992556034.512087,-11988673672.218615,-11990653751.83088,-11991699338.993336,-11990914066.505466,-11991155361.579224,-11991072139.453402,-18070552734.919926,-18070371347.247623,-18069879362.98058,-18070403036.057346,-18070298900.385345,-18070166557.85956,-18069866549.956097,79111401511.30084,79111328309.15408,79111380532.7406,79111523783.8422,79111900541.11978,79111291876.8618,79111136630.131,79111964381.83267,79111378376.06013,79111955485.78087,79111824472.17792,79111717809.85101,79111500679.40291,79111713179.48021,1292363243415.5803,80302525774.80887,80303315600.04968,80302351254.86539,80301688186.25854,80303089432.51318,80302196329.08925,833940750883.125,833940822372.6938,833940578394.4276,833940865746.0697,833940496600.0112,-633212160361.6034,-633214234418.1947,-633211105965.7024,-633216499883.2758,-633215104728.4534,-633215419403.3599,-633211951053.6044,-633214599656.753,-633215184319.9514,-633211982108.8556,-633214280519.4906,-633216809160.1047,-633212660978.4669,-633214931934.7324,-633212703179.6572,-633215814606.7487,-633211632737.0326,-633215094984.3906,-633215778530.1151,-633212744743.2526,-633213000211.5216,-633214657713.9686,-633214585431.4059,-633213841841.0262,-633214199780.0236,-633215083752.8319,-633212131664.3759,-633212412730.2297,-633214080521.7738,-633212906763.709,-633213717129.7054,-633213139704.8987,-633215047945.9902,-633215724243.8816,-633214557794.4806,-633214382094.9875,-633215508861.1074,-633215959905.9277,-633212884273.1924,-633215722160.3817,-633215005688.713,-633212071377.6531,-176940411399.22525
-0.08694508437822572,2.193853118081946e-06,-8.19529361184075,-2.8016575317815866e-05,-5.125873135018482e-06,-0.016231851717637878,-234226870803.9523,-234226243819.16547,-459120977710.20624,-234226891027.32526,-234226380878.78882,-234226043623.04138,-234226031004.12326,-234226436984.91232,-459121074009.7385,-102022025223.06769,-102022276433.07373,-102022781560.32217,-102022750198.48796,-102022363401.4157,-102022824996.60814,-102023042260.76096,-102022573975.74431,-102022406800.58548,-102023331104.34543,-102021682832.67433,-102022458236.18663,-102022909407.81319,-102022618346.16183,-102022817342.75821,-102022682529.72246,-18792547329.40578,-18792461533.263954,-18792263990.769672,-18792427555.747135,-18792371028.58085,-18792450396.31745,-18792274819.23014,102948364887.1088,102948329821.92056,102948387998.95335,102948405320.9091,102948549356.78004,102948308942.3577,102948200599.67616,102948595305.99994,102948329800.2742,102948547707.0037,102948587805.41196,102948527120.94789,102948362679.48451,102948529966.24286,327843314462.6148,80493480931.98631,80493750169.98949,80493549471.98694,80493147987.98787,80493762282.91351,80493384392.80234,-113217451325.82967,-113217260654.25308,-113217499137.2824,-113217241485.88252,-113217467783.13431,-370560757683.63336,-370561639304.40826,-370560314252.8219,-370562589682.41364,-370562055052.4817,-370562173736.18616,-370560519228.6669,-370561727504.29755,-370561962614.7724,-370560491082.60266,-370561843388.8833,-370562685365.37274,-370561096877.88153,-370562028907.7622,-370561059041.0023,-370562187748.0324,-370560660083.62604,-370562067641.0372,-370562431382.9131,-370561018797.17694,-370560942261.76794,-370561862623.5187,-370561953370.4624,-370561641212.6861,-370561925497.4383,-370562086006.7373,-370560793422.4952,-370560921522.7763,-370561391087.8965,-370560828275.2936,-370561335303.59973,-370561503500.9217,-370561894415.6934,-370562312385.732,-370561756479.03705,-370561733276.8708,-370562313209.4702,-370562484464.70636,-370561316956.2963,-370562287348.4842,-370561955214.91486,-370560623500.85974,655377838910.6396
-0.060218902368878856,2.6061439994840687e-06,-8.05329424804773,-2.673365045598135e-05,5.850539301764976e-06,0.0025216070259156723,-234226870793.28683,-234226243808.38193,-459120977678.5194,-234226891016.5133,-234226380867.9142,-234226043612.22665,-234226030993.22064,-234226436974.19888,-459121073984.65326,-102022025254.26047,-102022276401.26677,-102022781556.34422,-102022750195.3793,-102022363398.1054,-102022824993.33989,-102023042257.22743,-102022573971.89915,-102022406796.84523,-102023331100.4856,-102021682829.11626,-102022458232.4876,-102022909404.07191,-102022618342.83485,-102022817339.08446,-102022682525.7887,-18792547331.05398,-18792461534.941093,-18792263992.54672,-18792427557.45391,-18792371030.13825,-18792450397.620686,-18792274820.938366,102948364880.83026,102948329815.84871,102948387992.92007,102948405314.45801,102948549350.88484,102948308935.66156,102948200593.84789,102948595300.02518,102948329792.87537,102948547700.64407,102948587799.13004,102948527114.42667,102948362673.22542,102948529960.11955,327843314442.35724,80493480931.5002,80493750169.51134,80493549471.36865,80493147986.9283,80493762282.28465,80493384392.66447,-113217451312.27887,-113217260641.10423,-113217499124.18042,-113217241472.71516,-113217467770.21686,-370560757668.7952,-370561639289.98065,-370560314236.54803,-370562589666.09503,-370562055036.9862,-370562173720.72235,-370560519213.37103,-370561727488.86597,-370561962599.1818,-370560491067.38745,-370561843374.31647,-370562685350.1416,-370561096861.8659,-370562028893.26587,-370561059026.2029,-370562187737.00934,-370560660070.0677,-370562067626.0931,-370562431368.82635,-370561018782.08453,-370560942247.9074,-370561862608.0883,-370561953355.9344,-370561641197.1546,-370561925484.1289,-370562085991.19696,-370560793408.67084,-370560921507.8592,-370561391073.0412,-370560828261.0136,-370561335289.4666,-370561503482.8697,-370561894401.7012,-370562312373.1298,-370561756465.1745,-370561733261.6884,-370562313194.5277,-370562484451.3532,-370561316941.17755,-370562287333.14343,-370561955197.7342,-370560623485.47095,655377838874.4899
-0.0633166737456063,2.5606834414145674e-06,-8.45501346104152,-2.5321262678618037e-05,0.00013237410446099635,-0.009537548331433806,-234226870802.3312,-234226243817.70462,-459120977683.04755,-234226891025.62817,-234226380877.07166,-234226043621.25662,-234226031002.63138,-234226436983.32834,-459121073993.1476,-102022025250.23259,-102022276425.06795,-102022781476.74385,-102022750190.42233,-102022363393.35284,-102022824989.1144,-102023042253.03886,-102022573967.7097,-102022406792.71928,-102023331096.20972,-102021682824.67151,-102022458228.39725,-102022909399.77489,-102022618338.12024,-102022817334.7954,-102022682521.66736,-18792547332.957558,-18792461538.170834,-18792263995.938435,-18792427559.46976,-18792371032.325657,-18792450399.39852,-18792274822.825546,102948364882.11302,102948329809.26964,102948387994.72757,102948405316.0699,102948549352.41978,102948308937.8058,102948200595.65076,102948595301.70978,102948329795.15265,102948547702.1966,102948587800.54419,102948527116.12448,102948362674.725,102948529961.61479,327843314443.4173,80493480935.2051,80493750171.41153,80493549473.64651,80493147989.0152,80493762284.52002,80493384395.6064,-113217451329.44066,-113217260658.88469,-113217499141.7362,-113217241492.42094,-113217467787.29669,-370560757678.31647,-370561639296.236,-370560314242.0947,-370562589674.1998,-370562055045.34686,-370562173730.1663,-370560519220.4756,-370561727495.4279,-370561962605.8442,-370560491073.5492,-370561843381.34076,-370562685355.34827,-370561096868.9604,-370562028897.88776,-370561059033.19275,-370562187739.12274,-370560660074.26166,-370562067632.4018,-370562431372.55884,-370561018788.0756,-370560942252.8864,-370561862619.6146,-370561953362.20483,-370561641202.7658,-370561925488.16125,-370562085998.318,-370560793414.5367,-370560921513.8703,-370561391076.7072,-370560828265.72034,-370561335294.8607,-370561503491.39984,-370561894406.89825,-370562312376.8858,-370561756469.7641,-370561733267.2108,-370562313204.2999,-370562484459.5652,-370561316947.24286,-370562287338.6157,-370561955203.90753,-370560623493.1508,655377838901.9174
-0.16472930271928216,1.5516091345763862e-06,-8.290244664441955,-2.1623424571948948e-05,-8.750223060248407e-05,-0.020237617339836568,-234226870707.41974,-234226243722.80588,-459120977549.7832,-234226890931.23685,-234226380781.9998,-234226043526.6573,-234226030908.04956,-234226436887.75082,-459121073856.0436,-102022025235.78366,-102022276411.48831,-102022781537.80757,-102022749966.39777,-102022363365.52327,-102022824970.97397,-102023042235.39145,-102022573954.5057,-102022406779.21184,-102023331082.80807,-102021682810.47223,-102022458214.5243,-102022909386.00233,-102022618311.92052,-102022817320.9104,-102022682508.51904,-18792547325.17769,-18792461534.713264,-18792263991.27524,-18792427554.033585,-18792371024.996662,-18792450392.243298,-18792274816.542297,102948364842.19879,102948329775.87563,102948387954.41655,102948405275.66714,102948549310.28772,102948308896.91295,102948200554.54721,102948595260.61354,102948329745.27116,102948547661.53825,102948587760.16563,102948527075.93494,102948362634.15755,102948529921.66512,327843314360.48584,80493480909.45064,80493750142.99854,80493549446.16763,80493147961.65112,80493762256.70705,80493384370.56708,-113217451271.81436,-113217260598.99643,-113217499082.23492,-113217241431.84802,-113217467727.88483,-370560757568.12177,-370561639176.52136,-370560314124.0911,-370562589556.9471,-370562054931.2828,-370562173625.9486,-370560519106.8047,-370561727398.6405,-370561962488.5951,-370560490954.4408,-370561843261.2878,-370562685236.95776,-370561096779.2529,-370562028785.17664,-370561058914.38477,-370562187638.4008,-370560659957.7278,-370562067511.95514,-370562431254.783,-370561018669.803,-370560942134.35345,-370561862508.8071,-370561953242.24347,-370561641084.76544,-370561925372.8294,-370562085902.9394,-370560793295.5819,-370560921395.2848,-370561390958.71674,-370560828150.1535,-370561335179.1883,-370561503411.8249,-370561894293.9805,-370562312258.32715,-370561756351.867,-370561733150.112,-370562313081.6238,-370562484338.6258,-370561316828.422,-370562287226.7856,-370561955085.75726,-370560623375.01227,655377838681.7971
-0.14811150334247178,2.8620629580634442e-06,-8.11533932147954,-2.456029674254122e-05,-0.00020099128105583393,-0.02193065268233971,-234226870754.99817,-234226243770.32596,-459120977622.4566,-234226890978.51337,-234226380829.46423,-234226043573.7871,-234226030955.6221,-234226436935.20435,-459121073929.34607,-102022025229.71019,-102022276405.21313,-102022781531.73691,-102022750156.52202,-102022363260.4429,-102022824965.42574,-102023042229.43927,-102022573948.25371,-102022406773.00934,-102023331076.65793,-102021682804.48006,-102022458208.27531,-102022909379.95139,-102022618305.90128,-102022817314.84155,-102022682502.23163,-18792547334.1546,-18792461540.73612,-18792263997.467716,-18792427562.291454,-18792371034.012516,-18792450401.213226,-18792274823.75023,102948364854.65335,102948329788.40215,102948387966.86476,102948405288.443,102948549322.8423,102948308908.71526,102948200566.35545,102948595273.66603,102948329761.9484,102948547674.43097,102948587772.80151,102948527088.55247,102948362646.70886,102948529933.36009,327843314398.47754,80493480925.71785,80493750162.29944,80493549463.98592,80493147980.98677,80493762275.23102,80493384386.52199,-113217451301.6606,-113217260632.42145,-113217499113.76863,-113217241462.71729,-113217467759.99576,-370560757591.73364,-370561639212.70184,-370560314158.3511,-370562589592.632,-370562054964.8445,-370562173647.37854,-370560519135.45886,-370561727433.4228,-370561962523.2067,-370560490990.2339,-370561843296.65497,-370562685275.8928,-370561096799.6928,-370562028823.2234,-370561058947.1114,-370562187665.932,-370560659991.639,-370562067548.0825,-370562431289.1807,-370561018705.15875,-370560942169.6979,-370561862547.0458,-370561953279.3784,-370561641119.50146,-370561925417.4312,-370562085941.5109,-370560793336.68726,-370560921431.0642,-370561390993.92017,-370560828185.83124,-370561335211.3987,-370561503409.58234,-370561894329.41345,-370562312293.5746,-370561756385.92926,-370561733184.0452,-370562313116.2208,-370562484379.2842,-370561316863.8284,-370562287257.56354,-370561955121.1305,-370560623411.15155,655377838766.7415
-0.1500571159599609,2.7907740952086727e-06,-8.097502609716576,-2.3154438887981658e-05,-2.0580525209792506e-05,-0.027695467799077007,-234226870795.0024,-234226243810.50708,-459120977686.8439,-234226891018.6282,-234226380869.7454,-234226043614.75998,-234226030995.57278,-234226436978.73648,-459121073987.4075,-102022025252.33711,-102022276427.88211,-102022781554.93298,-102022750189.40738,-102022363392.86023,-102022824938.93248,-102023042254.29509,-102022573970.36807,-102022406795.01054,-102023331098.84991,-102021682826.5646,-102022458230.51474,-102022909402.02142,-102022618337.73882,-102022817336.93608,-102022682524.41605,-18792547327.555134,-18792461532.671337,-18792263989.666,-18792427554.01874,-18792371027.096474,-18792450394.222168,-18792274818.55332,102948364881.25276,102948329815.15195,102948387993.17265,102948405315.07762,102948549349.35405,102948308936.17245,102948200593.20894,102948595300.40605,102948329793.60217,102948547701.00833,102948587799.1007,102948527115.3258,102948362673.21838,102948529960.3343,327843314443.0232,80493480932.56964,80493750170.42032,80493549472.32716,80493147988.66998,80493762283.4483,80493384393.6121,-113217451316.8129,-113217260645.265,-113217499128.14192,-113217241478.33492,-113217467774.42029,-370560757679.5355,-370561639297.16437,-370560314247.0414,-370562589674.049,-370562055047.5626,-370562173733.74084,-370560519221.47986,-370561727498.91473,-370561962606.61743,-370560491075.2547,-370561843382.0485,-370562685359.9477,-370561096876.66644,-370562028901.57104,-370561059032.85535,-370562187741.6838,-370560660079.5306,-370562067632.74396,-370562431375.2057,-370561018789.8552,-370560942254.49133,-370561862618.4865,-370561953362.88916,-370561641205.0918,-370561925493.72455,-370562086003.47864,-370560793415.95465,-370560921515.501,-370561391080.22986,-370560828268.3724,-370561335298.5093,-370561503499.6682,-370561894412.3761,-370562312378.239,-370561756472.54,-370561733270.3088,-370562313202.40485,-370562484460.43726,-370561316948.84814,-370562287340.92017,-370561955208.571,-370560623494.70276,655377838887.064
-0.11358936201436994,2.558511219142099e-06,-8.375065645006764,-2.640743666748182e-05,0.00015515955428921862,-0.021339592606486966,-234226870772.95358,-234226243788.4246,-459120977635.13495,-234226890996.41043,-234226380847.7238,-234226043591.95758,-234226030973.22412,-234226436953.73715,-459121073943.81116,-102022025248.89597,-102022276424.17577,-102022781551.26337,-102022750186.231,-102022363389.27989,-102022824986.70117,-102023042187.38342,-102022573966.87057,-102022406791.67159,-102023331095.47672,-102021682823.65211,-102022458227.15866,-102022909398.83846,-102022618334.3109,-102022817333.8663,-102022682520.90091,-18792547330.837627,-18792461535.804527,-18792263993.091892,-18792427556.828,-18792371030.11516,-18792450398.03577,-18792274820.5005,102948364875.83386,102948329810.22414,102948387987.62721,102948405309.58702,102948549345.33989,102948308930.49452,102948200587.78099,102948595294.75235,102948329786.44067,102948547695.70181,102948587794.1074,102948527109.7207,102948362668.05719,102948529955.3552,327843314416.33984,80493480925.85356,80493750163.11275,80493549465.17255,80493147981.3439,80493762275.96074,80493384386.37656,-113217451313.02661,-113217260642.13226,-113217499125.58151,-113217241473.64828,-113217467771.04709,-370560757643.2026,-370561639264.68665,-370560314212.4428,-370562589643.2393,-370562055013.1713,-370562173699.38806,-370560519186.6206,-370561727469.33496,-370561962573.17633,-370560491041.7376,-370561843347.87897,-370562685323.398,-370561096839.6765,-370562028870.503,-370561059000.15027,-370562187707.8634,-370560660046.3885,-370562067599.96234,-370562431342.2174,-370561018756.49664,-370560942223.6357,-370561862582.7125,-370561953330.2418,-370561641171.4516,-370561925457.1263,-370562085971.11017,-370560793382.90656,-370560921486.39746,-370561391045.01624,-370560828235.4599,-370561335263.81476,-370561503464.8669,-370561894376.57495,-370562312344.80774,-370561756438.42004,-370561733236.3904,-370562313168.8258,-370562484433.9508,-370561316915.4303,-370562287307.4092,-370561955176.0133,-370560623460.3576,655377838838.9739
-0.0664291499208291,2.3435120303006746e-06,-8.081277891762284,-2.1829415322180083e-05,-6.08740023856584e-05,-0.03042131553892958,-234226870812.9251,-234226243827.76178,-459120977691.7519,-234226891035.34396,-234226380886.8006,-234226043631.22455,-234226031012.46436,-234226436996.28024,-459121074000.7097,-102022025256.41489,-102022276431.38313,-102022781558.47,-102022750197.88087,-102022363400.62996,-102022824995.30972,-102023042259.40622,-102022573941.59058,-102022406797.30449,-102023331100.17798,-102021682827.67798,-102022458233.80005,-102022909403.14447,-102022618345.35864,-102022817337.83354,-102022682526.74712,-18792547329.324142,-18792461535.35823,-18792263990.795254,-18792427555.215977,-18792371028.231255,-18792450395.263588,-18792274818.369,102948364880.43332,102948329817.21182,102948387994.44215,102948405314.34317,102948549352.75813,102948308938.37837,102948200595.8244,102948595302.00049,102948329795.98924,102948547699.862,102948587798.99048,102948527114.92789,102948362671.57669,102948529962.5907,327843314440.97156,80493480932.0839,80493750169.38611,80493549472.691,80493147988.47946,80493762282.6821,80493384392.70265,-113217451331.28973,-113217260661.46237,-113217499143.3755,-113217241492.61238,-113217467789.6467,-370560757657.91864,-370561639279.0479,-370560314226.0267,-370562589657.91095,-370562055027.7787,-370562173709.2584,-370560519202.9232,-370561727478.99603,-370561962590.26196,-370560491060.28906,-370561843364.369,-370562685338.87646,-370561096850.5175,-370562028885.14087,-370561059018.39636,-370562187722.664,-370560660059.3259,-370562067618.4805,-370562431357.41113,-370561018774.8531,-370560942238.19836,-370561862599.588,-370561953347.51514,-370561641187.0218,-370561925473.3947,-370562085980.40076,-370560793397.6818,-370560921498.05426,-370561391062.25977,-370560828250.5413,-370561335280.6506,-370561503473.64777,-370561894390.11743,-370562312360.47986,-370561756453.7176,-370561733251.9992,-370562313185.5277,-370562484441.0433,-370561316931.2245,-370562287321.8977,-370561955191.79376,-370560623475.82245,655377838902.2114
-0.0721795874935576,3.1911069134046397e-06,-7.8260293648413946,-2.2059818785034805e-05,8.995697308361464e-05,-0.036751941416194416,-234226870812.97922,-234226243828.17648,-459120977694.61884,-234226891036.27448,-234226380887.50146,-234226043632.00308,-234226031013.1621,-234226436994.60287,-459121074003.18207,-102022025256.90225,-102022276431.97531,-102022781559.12575,-102022750198.23317,-102022363401.0319,-102022824995.59845,-102023042259.8535,-102022573972.95062,-102022406774.25635,-102023331101.06755,-102021682828.53308,-102022458234.37154,-102022909404.07207,-102022618345.80353,-102022817338.63855,-102022682527.48842,-18792547329.199055,-18792461534.033092,-18792263991.074917,-18792427555.13533,-18792371028.18251,-18792450395.351315,-18792274818.641838,102948364881.47179,102948329816.8925,102948387994.37538,102948405315.2476,102948549352.47675,102948308938.85422,102948200596.11903,102948595302.36375,102948329796.28816,102948547700.54398,102948587799.17155,102948527116.09868,102948362671.32928,102948529963.0372,327843314443.12494,80493480931.90186,80493750169.28664,80493549472.21808,80493147988.15858,80493762282.28865,80493384392.90636,-113217451329.48956,-113217260659.13852,-113217499140.87833,-113217241489.74623,-113217467787.21721,-370560757657.8795,-370561639280.3544,-370560314226.09656,-370562589658.0521,-370562055027.5864,-370562173709.948,-370560519203.9053,-370561727478.3988,-370561962589.6004,-370560491058.10657,-370561843365.2159,-370562685342.38947,-370561096851.14996,-370562028883.2569,-370561059018.1533,-370562187723.2169,-370560660058.9789,-370562067617.9364,-370562431357.09033,-370561018772.2844,-370560942237.8711,-370561862598.3328,-370561953346.07294,-370561641187.504,-370561925473.19006,-370562085980.8173,-370560793397.78613,-370560921498.32056,-370561391062.2671,-370560828250.3467,-370561335279.93945,-370561503474.19324,-370561894390.36066,-370562312360.6903,-370561756454.719,-370561733251.56445,-370562313185.208,-370562484439.7261,-370561316931.48505,-370562287322.19904,-370561955189.5334,-370560623476.07196,655377838901.4181
-0.07685553194897592,2.6997049885066397e-06,-8.28095116836583,-3.098711226064457e-05,-6.498523727934331e-05,-0.03758106452778543,-234226870826.12518,-234226243841.5328,-459120977719.48804,-234226891049.04166,-234226380900.35687,-234226043644.8344,-234226031026.45093,-234226437007.99927,-459121074028.2174,-102022025262.77202,-102022276437.72542,-102022781564.72594,-102022750203.93932,-102022363406.7902,-102022825001.54753,-102023042265.76851,-102022573977.93396,-102022406803.17732,-102023331098.9192,-102021682831.04767,-102022458240.00476,-102022909407.27629,-102022618351.32588,-102022817341.34848,-102022682532.71065,-18792547328.931164,-18792461534.31512,-18792263991.058014,-18792427555.63377,-18792371028.780735,-18792450395.281445,-18792274818.30824,102948364888.66139,102948329823.80829,102948388002.9367,102948405320.82126,102948549360.6456,102948308946.60129,102948200604.00186,102948595310.09512,102948329803.7651,102948547705.53769,102948587807.52438,102948527122.4292,102948362679.9798,102948529970.88023,327843314462.65106,80493480935.51906,80493750172.55995,80493549475.87556,80493147991.82063,80493762286.19986,80493384396.61597,-113217451336.82303,-113217260667.53635,-113217499149.07437,-113217241498.31477,-113217467795.5153,-370560757667.2346,-370561639288.8773,-370560314236.4823,-370562589665.46063,-370562055036.8849,-370562173718.62585,-370560519212.6999,-370561727487.4766,-370561962598.8288,-370560491067.42267,-370561843373.6492,-370562685347.78925,-370561096859.6552,-370562028893.0928,-370561059027.4683,-370562187732.5023,-370560660067.94666,-370562067626.6661,-370562431366.54565,-370561018782.9958,-370560942246.8501,-370561862607.6998,-370561953354.5585,-370561641197.18085,-370561925481.2401,-370562085989.6335,-370560793406.3654,-370560921508.67126,-370561391071.0801,-370560828260.9421,-370561335289.2678,-370561503482.45667,-370561894399.3212,-370562312369.75543,-370561756464.22656,-370561733262.33954,-370562313193.8995,-370562484448.63965,-370561316940.0978,-370562287331.83673,-370561955198.26636,-370560623485.6912,655377838926.4224
-0.1313562342182463,2.299132265724879e-06,-8.28176421898722,-7.142986902247182e-05,-0.0007894332155244112,-0.06798496176401932,-234226870822.52026,-234226243837.08664,-459120977593.60834,-234226891045.54956,-234226380897.60556,-234226043641.9625,-234226031027.0497,-234226437005.28455,-459121073901.5772,-102022025251.84834,-102022276427.10378,-102022781553.93552,-102022750192.35101,-102022363395.35997,-102022824990.00995,-102023042254.6916,-102022573966.18158,-102022406791.39055,-102023331091.79582,-102021682733.09972,-102022458228.87502,-102022909392.00174,-102022618339.52725,-102022817323.32195,-102022682521.4214,-18792547316.83879,-18792461521.052834,-18792263978.645695,-18792427543.932495,-18792371017.19124,-18792450383.44976,-18792274805.76351,102948364821.6571,102948329756.1245,102948387936.12514,102948405254.34729,102948549294.12633,102948308879.08495,102948200536.75575,102948595242.68245,102948329736.53474,102948547632.59842,102948587741.35204,102948527056.05508,102948362613.49039,102948529904.03792,327843314271.64325,80493480922.10991,80493750159.72867,80493549462.64171,80493147978.29742,80493762273.07999,80493384384.01189,-113217451322.60445,-113217260651.4866,-113217499134.11392,-113217241483.47829,-113217467780.8576,-370560757490.8345,-370561639116.6211,-370560314069.4556,-370562589490.7604,-370562054861.5208,-370562173542.687,-370560519036.6343,-370561727312.38135,-370561962424.60065,-370560490898.5895,-370561843199.38257,-370562685171.3035,-370561096684.21173,-370562028716.70996,-370561058850.2029,-370562187556.5607,-370560659900.30664,-370562067447.86115,-370562431194.2908,-370561018614.4238,-370560942069.14136,-370561862431.07794,-370561953179.5583,-370561641021.922,-370561925307.5814,-370562085814.1099,-370560793230.8004,-370560921331.21405,-370561390894.90155,-370560828084.26666,-370561335113.6556,-370561503306.63824,-370561894222.6211,-370562312192.8809,-370561756288.9039,-370561733098.21826,-370562313022.26874,-370562484272.8998,-370561316763.97974,-370562287157.9468,-370561955021.2353,-370560623311.68695,655377838792.7554
-0.0834987092970086,2.6206823335930835e-06,-8.050730571152533,-2.5474277864525622e-05,1.5153797048349092e-05,-0.03312757167388969,-234226870806.33914,-234226243821.38974,-459120977683.8378,-234226891029.41254,-234226380880.74707,-234226043625.2322,-234226031006.41284,-234226436989.36923,-459121073991.83,-102022025253.52657,-102022276428.64087,-102022781555.82684,-102022750194.56866,-102022363397.32085,-102022824992.1258,-102023042256.36362,-102022573970.46931,-102022406795.39467,-102023331098.91818,-102021682827.04074,-102022458228.15343,-102022909402.2495,-102022618342.14948,-102022817337.17494,-102022682524.69234,-18792547330.3586,-18792461535.86083,-18792263991.896824,-18792427556.400192,-18792371029.431892,-18792450396.836723,-18792274820.130142,102948364878.67982,102948329813.08664,102948387991.489,102948405312.94398,102948549349.6723,102948308935.1074,102948200592.33951,102948595299.1689,102948329792.97774,102948547699.15999,102948587797.2162,102948527113.17506,102948362671.40605,102948529959.09572,327843314435.8425,80493480930.73184,80493750168.53679,80493549470.76324,80493147987.07187,80493762281.52632,80493384391.54367,-113217451327.30934,-113217260656.77396,-113217499139.13646,-113217241488.04523,-113217467785.27866,-370560757654.7823,-370561639275.0934,-370560314222.4634,-370562589652.19586,-370562055022.95917,-370562173705.3775,-370560519199.03674,-370561727474.16254,-370561962585.299,-370560491053.6122,-370561843359.60236,-370562685335.34515,-370561096846.7171,-370562028878.8828,-370561059011.8014,-370562187719.3529,-370560660054.2395,-370562067612.7086,-370562431352.48236,-370561018767.84686,-370560942233.82874,-370561862594.0167,-370561953341.3069,-370561641183.113,-370561925468.1402,-370562085976.3294,-370560793392.8231,-370560921494.0819,-370561391057.7734,-370560828245.75116,-370561335275.25464,-370561503469.0393,-370561894386.1809,-370562312357.38885,-370561756450.179,-370561733247.42993,-370562313180.6007,-370562484436.0961,-370561316926.75085,-370562287317.7288,-370561955183.75336,-370560623471.3321,655377838890.4899
-0.1038318955664846,3.184693393622007e-06,-8.138187456290744,-3.8907689498342514e-05,-0.0002540862272329552,-0.0440108354688577,-234226870840.02423,-234226243857.1325,-459120977708.31757,-234226891062.9268,-234226380913.8817,-234226043658.67615,-234226031041.653,-234226437022.26065,-459121074016.5776,-102022025271.6462,-102022276446.71822,-102022781573.69756,-102022750212.54004,-102022363415.49007,-102022825010.12558,-102023042274.53673,-102022573986.30687,-102022406811.5883,-102023331112.68279,-102021682836.66023,-102022458248.74257,-102022909394.84961,-102022618359.73943,-102022817347.34924,-102022682541.36823,-18792547324.041763,-18792461528.22433,-18792263985.795868,-18792427550.38405,-18792371023.911663,-18792450390.181347,-18792274813.017174,102948364887.64803,102948329820.27689,102948388001.71613,102948405318.84952,102948549359.41801,102948308945.08618,102948200602.59221,102948595308.77173,102948329802.48065,102948547701.79262,102948587807.44885,102948527121.34259,102948362679.06207,102948529969.67546,327843314435.5246,80493480931.755,80493750169.00725,80493549472.36787,80493147988.19133,80493762282.53522,80493384393.07172,-113217451353.5957,-113217260684.06612,-113217499166.00417,-113217241515.1525,-113217467812.59467,-370560757649.9089,-370561639272.1283,-370560314221.41095,-370562589648.98517,-370562055020.1284,-370562173702.4499,-370560519197.06824,-370561727471.3292,-370561962582.303,-370560491052.5494,-370561843355.99054,-370562685332.5327,-370561096843.2448,-370562028875.9052,-370561059010.51245,-370562187715.6518,-370560660053.7004,-370562067607.75287,-370562431354.4817,-370561018767.0225,-370560942229.53406,-370561862590.5392,-370561953338.04645,-370561641181.3098,-370561925465.2493,-370562085973.2401,-370560793391.0435,-370560921490.05927,-370561391054.7386,-370560828243.36554,-370561335272.7928,-370561503466.17896,-370561894381.89905,-370562312355.5721,-370561756448.2239,-370561733249.15533,-370562313177.6663,-370562484433.0952,-370561316923.3724,-370562287314.8534,-370561955180.1117,-370560623469.3363,655377838950.478
-0.16181826844562427,1.7530606036980167e-06,-8.421234900356975,-4.233421973984088e-05,-0.00021306776999610087,-0.015677730333144325,-234226870747.46893,-234226243763.89255,-459120977585.448,-234226890971.13263,-234226380821.81418,-234226043565.31006,-234226030948.25214,-234226436925.9593,-459121073892.76953,-102022025233.2822,-102022276408.7682,-102022781535.33098,-102022750161.7445,-102022363364.7254,-102022824969.12888,-102023042233.29607,-102022573951.8084,-102022406776.60635,-102023331080.01831,-102021682807.47281,-102022458211.928,-102022909383.02632,-102022617667.79156,-102022817318.3478,-102022682505.77722,-18792547330.065464,-18792461541.89772,-18792263998.956623,-18792427559.883278,-18792371030.723877,-18792450396.49304,-18792274820.248444,102948364846.81644,102948329781.3465,102948387959.45688,102948405280.56778,102948549312.13914,102948308902.98859,102948200558.02075,102948595265.01297,102948329754.79948,102948547666.67154,102948587765.79118,102948527081.11928,102948362639.16933,102948529927.39519,327843314361.7256,80493480924.22552,80493750154.49715,80493549458.31273,80493147973.72255,80493762268.95728,80493384384.36899,-113217451260.98195,-113217260590.02454,-113217499074.04352,-113217241421.96295,-113217467719.85704,-370560757718.1625,-370561639302.9463,-370560314268.2437,-370562589680.1937,-370562055051.6695,-370562173753.56024,-370560519226.3945,-370561727530.2361,-370561962613.0535,-370560491081.1948,-370561843387.9707,-370562685363.61676,-370561096888.017,-370562028906.9251,-370561059039.0132,-370562187749.51215,-370560660116.8374,-370562067639.2329,-370562431388.7197,-370561018796.94794,-370560942260.3384,-370561862624.1783,-370561953368.73486,-370561641211.86926,-370561925534.70844,-370562086025.83575,-370560793441.1149,-370560921521.8049,-370561391085.3761,-370560828278.44305,-370561335302.4093,-370561503500.7059,-370561894420.8146,-370562312384.5896,-370561756479.68164,-370561733277.44916,-370562313209.18494,-370562484464.8731,-370561316954.94257,-370562287347.6888,-370561955211.85565,-370560623501.02875,655377838825.6273
-0.09603203634259652,2.520308041884375e-06,-8.525606097238734,-0.00017850269999106477,-0.0007264496775895731,-0.060266664507190204,-234226870877.82175,-234226243891.54166,-459120977696.526,-234226891100.45944,-234226380954.35388,-234226043698.51846,-234226031077.67926,-234226437060.44745,-459121074005.1316,-102022025260.0057,-102022276435.1453,-102022781562.13275,-102022750200.86273,-102022363403.79488,-102022824998.45482,-102023042262.97919,-102022573974.41042,-102022406799.56941,-102023331100.16965,-102021682821.39471,-102022458237.08253,-102022909400.7638,-102022618348.47601,-102022817273.66167,-102022682529.65187,-18792547324.53956,-18792461527.879726,-18792263985.746838,-18792427550.502735,-18792371024.20074,-18792450390.779533,-18792274813.4837,102948364869.71075,102948329805.02882,102948387984.62381,102948405303.1459,102948549343.0104,102948308927.59741,102948200585.15105,102948595290.88068,102948329784.46765,102948547680.60658,102948587788.7264,102948527104.64346,102948362661.47314,102948529952.33603,327843314368.5402,80493480932.26064,80493750170.24582,80493549473.21729,80493147989.00035,80493762283.66188,80493384394.15692,-113217451369.09282,-113217260699.59311,-113217499181.16843,-113217241530.56453,-113217467827.69719,-370560757592.9746,-370561639215.52325,-370560314163.13806,-370562589594.6657,-370562054964.96106,-370562173645.82886,-370560519139.8129,-370561727415.25824,-370561962524.9736,-370560490995.64526,-370561843300.8547,-370562685276.3543,-370561096787.41943,-370562028821.3776,-370561058954.001,-370562187664.29095,-370560659994.8128,-370562067550.9404,-370562431301.57556,-370561018707.7852,-370560942172.45917,-370561862534.8993,-370561953281.78827,-370561641125.7562,-370561925412.83344,-370562085917.2957,-370560793333.947,-370560921434.8495,-370561390998.1634,-370560828189.3241,-370561335215.7023,-370561503409.8555,-370561894326.0939,-370562312296.423,-370561756390.15643,-370561733191.071,-370562313119.734,-370562484376.08734,-370561316867.3781,-370562287259.5616,-370561955124.5903,-370560623413.1177,655377838953.0997
-0.06806927650145295,2.8118646086877383e-06,-7.951318134628113,-2.391144258371307e-05,2.389536848235408e-05,-0.025010191364170757,-234226870811.2139,-234226243826.11084,-459120977694.88324,-234226891034.02487,-234226380885.51617,-234226043629.91647,-234226031011.4124,-234226436993.3681,-459121074003.058,-102022025256.33847,-102022276431.21799,-102022781558.37294,-102022750197.83945,-102022363400.55324,-102022824995.30304,-102023042259.38191,-102022573972.69237,-102022406797.78752,-102023331100.89998,-102021682828.863,-102022458233.9683,-102022909404.1511,-102022618345.27364,-102022817339.02019,-102022682522.50607,-18792547329.080658,-18792461532.994965,-18792263990.212177,-18792427555.123604,-18792371028.237434,-18792450395.343857,-18792274818.454365,102948364880.21025,102948329815.57678,102948387993.93796,102948405314.24701,102948549352.05998,102948308937.7749,102948200595.23979,102948595301.41307,102948329795.55026,102948547700.4291,102948587798.78323,102948527114.7165,102948362672.44478,102948529961.85428,327843314444.03705,80493480931.71468,80493750169.82469,80493549472.44911,80493147988.01498,80493762283.01515,80493384392.92462,-113217451329.30334,-113217260658.9302,-113217499141.07028,-113217241490.07373,-113217467787.2997,-370560757661.7994,-370561639282.1985,-370560314228.8351,-370562589658.9689,-370562055030.02655,-370562173712.2218,-370560519206.45154,-370561727481.0576,-370561962591.7056,-370560491060.1916,-370561843366.92236,-370562685342.10284,-370561096853.4373,-370562028886.39417,-370561059024.5708,-370562187726.2953,-370560660060.68274,-370562067619.36957,-370562431359.5056,-370561018775.42737,-370560942239.8039,-370561862600.92535,-370561953348.51746,-370561641189.8373,-370561925475.3145,-370562085983.149,-370560793400.46295,-370560921502.47644,-370561391064.39325,-370560828253.06604,-370561335282.3811,-370561503475.22235,-370561894392.9057,-370562312364.1864,-370561756457.14606,-370561733254.23267,-370562313187.12134,-370562484442.99927,-370561316933.65924,-370562287325.1454,-370561955191.11774,-370560623478.4227,655377838900.9843
-0.09284262097377749,-8.428823061492044e-08,2.494236271154942,-1.3317478800595137e-05,-9.13489874224531e-05,-0.032212393920796924,31336817601.82335,31336759895.216652,-77534970600.98013,31336809765.205994,31336764170.014984,31336741371.971264,31336744221.373055,31336785543.60065,-77534981998.85025,-37396324020.374954,-37396315827.396614,-37396268094.75843,-37396270408.65175,-37396299976.169495,-37396270943.33895,-37396244228.636246,-37396278960.10364,-37396299085.78768,-37396220006.38077,-37396356792.94771,-37396298194.924324,-37396253668.99033,-37396292673.19911,-37396267383.25433,-37396277891.13328,-26084466813.52877,-26084474923.016556,-26084490107.611183,-26084476972.842278,-26084482047.19098,-26084483162.004467,-26084491969.945705,44451003225.95717,44451007858.17794,44451001088.937996,44450996101.84297,44450993965.28064,44451013200.71353,44451017474.8776,44450987909.61548,44451009640.02022,44450992539.9006,44450979716.34679,44450991471.513756,44451009994.21943,44450993252.36748,153322728023.47433,-11408488091.227959,-11408509998.639927,-11408485953.501173,-11408458703.78723,-11408503408.644072,-11408477050.087,6008446921.372467,6008444071.917921,6008459745.028842,6008433385.583346,6008458320.290271,18867076946.444466,18867128241.031136,18867031350.81909,18867232256.72724,18867169561.645298,18867188084.52672,18867044175.57834,18867166713.318184,18867156738.72533,18867047024.718174,18867170987.40724,18867222282.43043,18867086920.995735,18867178112.01756,18867091193.480732,18867182384.638832,18867074097.72587,18867172415.330177,18867182387.3171,18867092621.402634,18867064122.30597,18867152464.749466,18867170987.112026,18867152463.796726,18867172412.30217,18867179536.698257,18867084072.764523,18867078372.551605,18867141064.239376,18867064122.96234,18867136791.91546,18867142490.48142,18867159588.01963,18867216581.452095,18867153889.90256,18867162438.434628,18867209461.995605,18867209456.615723,18867115417.904854,18867189509.75593,18867178111.40988,18867061273.642654,-25774036245.299614
0.04197626518681761,-7.088966168219488e-07,2.5215745513806715,4.996695051113604e-06,0.0007269701022278518,-0.04474225074402332,31336817330.27782,31336759628.77018,-77534971086.4606,31336809497.207172,31336763902.53602,31336741103.398357,31336743952.951447,31336785267.76416,-77534982489.99283,-37396324134.262085,-37396315941.31377,-37396268209.99887,-37396270528.21701,-37396300092.78044,-37396271058.482994,-37396244343.63418,-37396279076.165924,-37396299200.651665,-37396220121.793045,-37396356907.19229,-37396298310.455,-37396253783.20296,-37396292795.06116,-37396267496.628006,-37396278005.07528,-26084466830.659363,-26084473379.599724,-26084489977.50633,-26084476980.48503,-26084482052.206562,-26084483170.88736,-26084491981.45245,44451003313.27836,44451007937.271866,44451001176.230484,44450996190.49579,44450994051.93614,44451013289.32671,44451017563.54471,44450987996.54961,44451009723.75967,44450992627.30678,44450979801.92736,44450991559.154854,44451010083.30055,44450993339.72904,153322728332.85248,-11408488112.538744,-11408509879.657877,-11408485854.327652,-11408458589.208277,-11408503287.070965,-11408477080.770803,6008446820.270117,6008443970.240235,6008459644.223908,6008433282.97361,6008458218.765696,18867076572.57166,18867127870.614872,18867030973.876606,18867231882.32148,18867169190.565044,18867187714.84732,18867043795.673367,18867166343.733013,18867156368.66444,18867046655.971615,18867170618.850025,18867221907.65954,18867086555.49937,18867177743.058926,18867090835.37465,18867182017.41101,18867073732.84725,18867172046.392845,18867182012.840157,18867092253.77763,18867063746.741955,18867152094.303623,18867170617.75144,18867152093.32478,18867172044.379025,18867179165.679455,18867083706.401558,18867078001.666786,18867140695.877975,18867063748.925102,18867136418.36764,18867142123.045036,18867159220.17366,18867216213.869186,18867153521.246166,18867162069.68902,18867209094.361176,18867209086.534466,18867115047.200943,18867189138.72703,18867177742.816944,18867060903.819695,-25774035592.529396
-0.03017574850980134,-5.00204033423644e-07,2.1230197981304295,-1.1062555949223302e-05,5.259741818071824e-05,-0.03418494343769612,31336817477.653564,31336759770.95812,-77534970772.6389,31336809640.80586,31336764045.451244,31336741247.090828,31336744096.616722,31336785407.998184,-77534982173.67537,-37396324102.3462,-37396315909.49674,-37396268178.346725,-37396270495.356735,-37396300060.090004,-37396271026.05731,-37396244311.49801,-37396279042.182205,-37396299168.270996,-37396220089.11526,-37396356875.36207,-37396298277.06999,-37396253751.35201,-37396292762.69694,-37396267465.069275,-37396277972.87226,-26084466822.435017,-26084474784.686546,-26084489957.42068,-26084476971.876774,-26084482044.713947,-26084483162.75319,-26084491972.2493,44451003248.216896,44451007866.52175,44451001110.947586,44450996124.22419,44450993987.37593,44451013223.32742,44451017497.08278,44450987932.23953,44451009657.824135,44450992562.11148,44450979738.30765,44450991493.59194,44451010016.559296,44450993274.36618,153322728095.67218,-11408488158.712341,-11408509915.159433,-11408485889.843822,-11408458625.215572,-11408503322.74829,-11408477117.65955,6008446802.216676,6008443952.673901,6008459627.034734,6008433265.16062,6008458202.232128,18867076670.118065,18867127967.942047,18867031071.225487,18867231980.05932,18867169288.042137,18867187812.814106,18867043892.566315,18867166440.68223,18867156465.937466,18867046753.556866,18867170716.212868,18867222005.26729,18867086653.507763,18867177840.203403,18867090936.691,18867182114.240185,18867073829.369915,18867172144.04555,18867182111.252678,18867092351.139168,18867063844.03705,18867152191.275394,18867170715.832085,18867152190.956547,18867172140.894844,18867179262.6397,18867083803.998188,18867078099.7707,18867140793.29635,18867063846.331696,18867136515.585976,18867142219.843285,18867159317.408833,18867216309.366592,18867153619.14376,18867162167.838894,18867209191.6309,18867209184.713352,18867115145.823544,18867189236.953823,18867177839.68823,18867061001.49602,-25774035755.122974
-0.07154953877616861,5.689616736466167e-07,1.8626377978589546,-1.3908706539598606e-05,-9.91925500569492e-05,-0.019765590878989662,31336817589.305717,31336759882.829582,-77534970600.61716,31336809752.517,31336764157.466946,31336741359.160427,31336744208.701252,31336785525.291134,-77534982000.44368,-37396324024.39671,-37396315831.476944,-37396268098.95095,-37396270415.187965,-37396299981.986725,-37396270947.48296,-37396244232.30694,-37396278963.675835,-37396299089.40434,-37396220010.76373,-37396356797.72189,-37396298198.64631,-37396253673.01299,-37396292680.6964,-37396267386.89796,-37396277894.85657,-26084466820.102394,-26084474920.10291,-26084490104.31311,-26084476891.733425,-26084482045.358852,-26084483160.65195,-26084491969.300312,44451003231.26128,44451007863.13045,44451001093.997955,44450996107.41794,44450993969.24254,44451013205.74354,44451017480.457,44450987914.82318,44451009645.935356,44450992545.22019,44450979721.67152,44450991476.79545,44451009999.93362,44450993257.39032,153322728017.09323,-11408488092.657034,-11408509998.304447,-11408485954.233675,-11408458703.808853,-11408503407.815226,-11408477051.910774,6008446905.098535,6008444056.155213,6008459729.219842,6008433368.896598,6008458305.160504,18867076917.272232,18867128214.05091,18867031319.711765,18867232224.644253,18867169534.288845,18867188048.62399,18867044147.71429,18867166684.655544,18867156714.122353,18867046997.369232,18867170961.626022,18867222256.45176,18867086887.53275,18867178078.444748,18867091167.41047,18867182348.334976,18867074072.780315,18867172389.67056,18867182355.020817,18867092595.136734,18867064093.825344,18867152437.292534,18867170955.057693,18867152438.14664,18867172382.562622,18867179507.270405,18867084047.590057,18867078348.082275,18867141036.28299,18867064093.707172,18867136758.40229,18867142466.007885,18867159557.788418,18867216556.437984,18867153863.16368,18867162411.935787,18867209427.890846,18867209431.695137,18867115392.312027,18867189482.61014,18867178085.82134,18867061245.70529,-25774036195.60209
0.021018126162469463,1.7755636702205545e-07,1.6136342914756023,-1.4886202584578678e-05,-8.974971417249755e-05,-0.00620079666823844,31336817596.286457,31336759889.834137,-77534970613.57925,31336809759.589252,31336764164.20584,31336741366.3214,31336744215.91871,31336785536.471703,-77534982013.70467,-37396324019.421555,-37396315826.35239,-37396268093.99801,-37396270408.342186,-37396299975.89891,-37396270942.75182,-37396244227.78524,-37396278958.88227,-37396299084.64268,-37396220006.1019,-37396356793.171844,-37396298193.86916,-37396253668.73183,-37396292673.72856,-37396267382.78718,-37396277890.16156,-26084466823.80885,-26084474921.18002,-26084490106.508034,-26084476974.716587,-26084482043.331528,-26084483164.47006,-26084491974.705276,44451003225.57317,44451007855.98198,44451001088.955826,44450996101.76082,44450993964.34952,44451013200.35434,44451017474.83655,44450987909.04352,44451009639.02649,44450992539.4826,44450979716.2753,44450991471.09217,44451009993.88308,44450993252.23756,153322728031.9104,-11408488092.466269,-11408509997.077538,-11408485953.32087,-11408458704.478958,-11408503404.063496,-11408477051.42808,6008446920.587402,6008444070.453568,6008459743.246762,6008433384.5868025,6008458319.33708,18867076938.410248,18867128233.619026,18867031344.436417,18867232248.496094,18867169554.515656,18867188076.780216,18867044167.85275,18867166705.43293,18867156731.79278,18867047018.033062,18867170980.71845,18867222274.11767,18867086913.16934,18867178105.023415,18867091182.332947,18867182377.96206,18867074090.748367,18867172406.86994,18867182380.631203,18867092615.47453,18867064114.050797,18867152457.0274,18867170979.205856,18867152457.369408,18867172404.564342,18867179529.17456,18867084064.96544,18867078364.709595,18867141056.436184,18867064115.84703,18867136784.214863,18867142483.725002,18867159580.33855,18867216574.14763,18867153882.753895,18867162431.436153,18867209454.54253,18867209448.684822,18867115410.776367,18867189501.81192,18867178104.336426,18867061266.19752,-25774036237.229305
-0.06215689856009962,-8.534704457206758e-07,2.4124657771203952,-1.4279724741241682e-05,-0.0001437807583134438,-0.022153319006495937,31336817585.46188,31336759878.82523,-77534970638.55925,31336809748.531178,31336764153.07876,31336741355.253426,31336744204.752415,31336785526.677227,-77534982038.71237,-37396324027.87371,-37396315834.550385,-37396268101.78644,-37396270416.304474,-37396299983.81522,-37396270950.59304,-37396244236.42144,-37396278966.630165,-37396299092.52704,-37396220013.318184,-37396356800.145874,-37396298201.98954,-37396253675.71705,-37396292680.21407,-37396267390.081535,-37396277897.98355,-26084466823.451508,-26084474924.691,-26084490109.376404,-26084476974.838837,-26084482049.299194,-26084483132.07979,-26084491972.702663,44451003238.886246,44451007870.47421,44451001101.630905,44450996114.59534,44450993977.73765,44451013213.46616,44451017487.46925,44450987921.78783,44451009651.91983,44450992552.418205,44450979729.00519,44450991484.15144,44451010006.824875,44450993265.13783,153322728058.86578,-11408488089.979816,-11408509996.159027,-11408485952.009794,-11408458701.546837,-11408503407.147861,-11408477048.64047,6008446919.518097,6008444070.081368,6008459741.350916,6008433383.271612,6008458318.309048,18867076907.780853,18867128202.373436,18867031311.6248,18867232215.5176,18867169522.10087,18867188045.799473,18867044137.6545,18867166673.73297,18867156700.652863,18867046987.42339,18867170948.712902,18867222243.7308,18867086880.86485,18867178074.506584,18867091155.078873,18867182343.1265,18867074057.454193,18867172376.820213,18867182347.97221,18867092583.067486,18867064083.0081,18867152425.49282,18867170948.432594,18867152425.105488,18867172373.421463,18867179497.2777,18867084034.10921,18867078335.97853,18867141022.398106,18867064083.216015,18867136752.488785,18867142451.23997,18867159547.463898,18867216541.212006,18867153850.875195,18867162399.873608,18867209423.564526,18867209418.50338,18867115379.36884,18867189471.491825,18867178073.23224,18867061234.72428,-25774036194.63993
-0.2199679448580094,1.0784902667083467e-07,4.18243201407834,-9.233517192004878e-06,-0.00020801094142485965,0.010457477797690996,31336817587.130493,31336759880.488388,-77534970626.37929,31336809750.42601,31336764155.05447,31336741357.3687,31336744207.079422,31336785527.88488,-77534982025.22217,-37396324023.83562,-37396315830.91729,-37396268098.26271,-37396270413.65267,-37396299979.401405,-37396270947.973434,-37396244231.93542,-37396278962.784836,-37396299088.866806,-37396220009.39429,-37396356795.50891,-37396298198.33221,-37396253671.60218,-37396292677.01768,-37396267385.83503,-37396277894.14331,-26084466821.796135,-26084474925.661,-26084490109.275936,-26084476973.89058,-26084482049.9378,-26084483163.106052,-26084491934.871864,44451003232.71425,44451007863.49417,44451001095.43121,44450996108.43745,44450993971.1544,44451013206.701775,44451017481.26786,44450987915.51913,44451009644.56338,44450992546.29905,44450979722.6008,44450991477.657524,44451010000.777214,44450993258.72673,153322728040.1605,-11408488087.415325,-11408509994.566496,-11408485950.132284,-11408458699.773512,-11408503404.610453,-11408477044.78628,6008446922.962856,6008444073.252134,6008459746.661101,6008433386.836929,6008458321.805741,18867076922.90809,18867128217.701073,18867031327.53655,18867232232.142403,18867169538.506535,18867188061.62622,18867044151.234795,18867166688.79581,18867156714.80829,18867047000.945515,18867170963.361893,18867222258.154877,18867086896.895615,18867178087.6387,18867091171.461697,18867182362.20478,18867074073.19737,18867172388.217255,18867182362.20478,18867092596.31706,18867064099.209843,18867152440.242207,18867170963.361893,18867152440.242207,18867172388.217255,18867179512.494057,18867084047.184895,18867078347.76345,18867141041.39932,18867064099.209843,18867136766.833237,18867142466.25468,18867159564.51901,18867216558.733437,18867153865.097565,18867162414.22973,18867209434.45663,18867209434.45663,18867115394.002827,18867189486.481583,18867178087.6387,18867061249.499123,-25774036211.446613
0.11777220084965198,-2.567363523582777e-06,5.99198985140043,5.386022294583421e-05,0.00032236933671004817,0.06368195890409087,264374298670.63254,264374144812.7297,493958805534.563,264374305556.69662,264374193405.4217,264374107343.1125,264374087452.82306,264374172646.23416,493958841392.9892,58854946886.06233,58855025309.03564,58855140663.00294,58855122071.36434,58855035145.345314,58855154324.89246,58855203704.11461,58855089367.1687,58855044590.98634,58855279940.173645,58854860555.14123,58855069591.153824,58855175599.29355,58855115484.19366,58855148456.22015,58855121081.22449,21896723542.868885,21896703532.753635,21896650974.084343,21896697674.08695,21896684683.57076,21896703329.271687,21896655698.510292,-179970347796.5983,-179970341179.69107,-179970350952.5128,-179970354610.51022,-179970403878.30957,-179970340491.21722,-179970310739.95035,-179970411508.79688,-179970344895.51532,-179970403584.0394,-179970395353.97012,-179970388900.35004,-179970358316.43994,-179970391593.02957,-409555093030.03503,-59139952203.54289,-59140026341.8733,-59139967684.41643,-59139867796.63436,-59140029869.2017,-59139927797.475296,208181001518.25104,208180950369.50644,208181005376.20206,208180956109.86588,208181001149.6769,399204674223.0847,399204923812.12964,399204571290.21295,399205137258.6568,399205018095.8761,399205039366.5966,399204640197.4071,399204915290.6802,399205010331.30347,399204630221.7846,399204931497.05457,399205185206.8481,399204771810.7645,399204995337.0336,399204758167.31116,399205062835.3642,399204633491.4483,399205017903.9892,399205128208.63776,399204746611.79645,399204767155.58746,399204970653.19196,399204971594.6185,399204883303.25214,399204949640.2688,399205014292.314,399204674750.2784,399204725571.8139,399204836055.19275,399204732938.7953,399204813800.09106,399204834143.13336,399204983909.9715,399205054213.6835,399204936696.68164,399204914663.2927,399205055653.596,399205117303.31744,399204806212.3697,399205078708.56244,399204977644.00684,399204652813.59064,-713401370533.2146
0.17561510225994073,-5.032575537819152e-06,1.7762850549428193,4.410619746535245e-05,-0.0006217330408465654,0.05914690533067576,264374298702.84937,264374144877.85928,493958805577.06226,264374305622.4405,264374193470.03778,264374107407.98224,264374087518.6229,264374172712.22305,493958841434.2017,58854946905.07645,58855025328.25667,58855140674.36232,58855122089.24395,58855035163.29663,58855154342.99442,58855203722.707825,58855089388.14975,58855044610.609634,58855279959.523544,58854860573.81063,58855069609.76324,58855175616.12515,58855115502.92609,58855148475.74093,58855121100.79372,21896723556.958157,21896703538.61354,21896650974.25753,21896697687.824574,21896684695.847992,21896703342.728115,21896655711.15857,-179970347801.35245,-179970337518.69748,-179970350948.59808,-179970354606.93857,-179970403874.32416,-179970340486.5966,-179970310737.0177,-179970411506.402,-179970344894.7484,-179970403580.43405,-179970395349.60138,-179970388897.9094,-179970358312.19894,-179970391589.00623,-409555093003.67584,-59139952187.320946,-59140026340.0305,-59139967686.690315,-59139867792.6302,-59140029866.76774,-59139927783.35771,208181001541.62186,208180950404.524,208181005410.3539,208180956144.49387,208181001182.7785,399204674074.1444,399204923662.08765,399204571139.13336,399205137110.2719,399205017946.1069,399205039216.2621,399204640049.10046,399204915142.72736,399205010181.89343,399204630071.33545,399204931347.3262,399205185056.943,399204771662.9553,399204995186.67847,399204758020.60626,399205062685.6303,399204633341.0865,399205017752.54553,399205128058.48553,399204746462.47577,399204767005.082,399204970503.56866,399204971444.0637,399204883153.47876,399204949490.7341,399205014144.2678,399204674602.7967,399204725419.56366,399204835903.8083,399204732789.5955,399204813649.8196,399204833993.5434,399204983761.8567,399205054062.9322,399204936545.4822,399204914511.37286,399205055501.812,399205117152.6101,399204806061.82,399205078559.9283,399204977492.7932,399204652664.2546,-713401370517.0991
0.13325739666229208,-2.1617783099321434e-06,2.8237912561996765,5.895580757257774e-05,0.0002721773906036799,0.05187702171164011,264374298669.71783,264374144809.65747,493958805533.31226,264374305553.027,264374193401.8413,264374107338.20712,264374087450.61328,264374172642.95352,493958841390.8397,58854946883.497086,58855025306.71565,58855140661.20769,58855122069.17232,58855035143.14689,58855154322.40259,58855203701.49816,58855089366.76767,58855044589.48014,58855279940.03908,58854860555.19943,58855069589.5532,58855175598.95183,58855115482.423294,58855148456.72336,58855121080.54238,21896723542.85103,21896703532.703194,21896650973.81637,21896697673.824974,21896684683.954765,21896703329.01769,21896655698.228592,-179970347805.27478,-179970341179.69885,-179970350941.4305,-179970354609.10406,-179970403874.78687,-179970340488.5678,-179970310737.55838,-179970411507.73947,-179970344895.45422,-179970403583.48212,-179970395352.22302,-179970388898.73947,-179970358315.50732,-179970391589.90814,-409555093030.3562,-59139952202.67377,-59140026340.9389,-59139967683.08031,-59139867795.14326,-59140029867.91868,-59139927796.07291,208181001519.96454,208180950372.01016,208181005378.55765,208180956112.04767,208181001151.84528,399204674220.8357,399204923812.5208,399204571290.53076,399205137259.0853,399205018096.658,399205039366.6917,399204640197.0036,399204915290.7958,399205010331.68054,399204630222.27954,399204931497.6588,399205185207.5929,399204771810.8301,399204995337.209,399204758164.101,399205062835.9686,399204633490.8832,399205017903.02094,399205128209.9714,399204746612.60266,399204767153.6958,399204970653.75476,399204971595.86456,399204883303.84045,399204949640.5929,399205014292.76227,399204674751.32855,399204725570.07275,399204836054.6735,399204732939.65704,399204813799.0408,399204834142.24927,399204983910.40424,399205054214.8927,399204936696.49115,399204914663.3388,399205055653.89484,399205117304.3668,399204806212.76184,399205078709.3805,399204977644.51,399204652813.83795,-713401370531.8241
0.11557634209464253,-2.1325124697570214e-06,4.608725621497536,5.125731489979397e-05,0.00020561244442336284,0.03740651810792692,264374298662.9972,264374144803.89606,493958805520.5525,264374305547.3378,264374193394.04953,264374107332.76297,264374087444.07526,264374172637.54758,493958841379.41925,58854946887.156166,58855025309.95688,58855140664.25333,58855122072.12626,58855035146.4285,58855154326.01086,58855203705.16129,58855089368.371956,58855044592.055595,58855279939.62683,58854860555.12476,58855069592.71147,58855175597.78843,58855115485.239784,58855148456.948586,58855121082.554634,21896723541.946793,21896703533.16207,21896650973.283722,21896697673.435757,21896684682.95055,21896703328.172882,21896655697.42559,-179970347808.32382,-179970341183.09082,-179970350954.15576,-179970354603.12808,-179970403879.56146,-179970340493.6573,-179970310742.31866,-179970411511.87213,-179970344899.16425,-179970403584.7302,-179970395355.8992,-179970388901.93317,-179970358318.387,-179970391594.77567,-409555093028.52344,-59139952202.23844,-59140026340.390686,-59139967682.70384,-59139867794.865074,-59140029867.4744,-59139927795.82534,208181001523.2545,208180950375.04303,208181005381.88974,208180956115.4933,208181001155.1594,399204674229.9919,399204923819.93787,399204571297.32855,399205137266.36847,399205018103.2305,399205039373.921,399204640204.81,399204915298.2458,399205010337.79877,399204630228.04126,399204931504.70087,399205185212.7043,399204771818.42255,399204995345.00653,399204758173.4877,399205062843.0479,399204633499.14044,399205017910.86975,399205128217.2675,399204746618.961,399204767162.2954,399204970661.4255,399204971602.2599,399204883310.1646,399204949648.76904,399205014300.0443,399204674759.0229,399204725576.0544,399204836061.7851,399204732947.7292,399204813807.2219,399204834151.2117,399204983917.3419,399205054219.79785,399204936703.70685,399204914670.3897,399205055660.42426,399205117311.5802,399204806219.7686,399205078717.73016,399204977650.1554,399204652821.16077,-713401370534.4697
0.11362171645362235,-1.3071364119027434e-07,2.9354886835891865,6.030108501009816e-05,0.00039840410315890117,0.00813291752967478,264374298679.10007,264374144819.04282,493958805538.89484,264374305562.72638,264374193410.09036,264374107343.1197,264374087459.7489,264374172638.07712,493958841396.2725,58854946884.284096,58855025307.64075,58855140661.86019,58855122068.00374,58855035142.08473,58855154321.54425,58855203702.17115,58855089368.04409,58855044590.541824,58855279940.70829,58854860556.16097,58855069590.696785,58855175599.61408,58855115478.0677,58855148458.07032,58855121081.62472,21896723545.949104,21896703535.17328,21896650977.000137,21896697675.824974,21896684686.10387,21896703331.879856,21896655700.707207,-179970347808.85013,-179970341183.20334,-179970350952.5655,-179970354612.28836,-179970403842.7265,-179970340492.02142,-179970310741.05676,-179970411510.99756,-179970344898.461,-179970403586.7088,-179970395355.84464,-179970388901.89014,-179970358319.2465,-179970391593.15244,-409555093029.7527,-59139952202.16183,-59140026339.9688,-59139967682.50222,-59139867795.12274,-59140029867.31635,-59139927796.27394,208181001518.0383,208180950369.7093,208181005376.3062,208180956109.4028,208181001149.60004,399204674220.3168,399204923811.6897,399204571289.6822,399205137259.35236,399205018095.41034,399205039367.0465,399204640196.7548,399204915290.4587,399205010330.7757,399204630219.6988,399204931496.6741,399205185208.78894,399204771809.1043,399204995336.6017,399204758163.127,399205062835.63556,399204633489.247,399205017904.1199,399205128209.1172,399204746612.4341,399204767152.97186,399204970653.7615,399204971595.04565,399204883302.88544,399204949640.97217,399205014289.0883,399204674751.0201,399204725570.03687,399204836053.69794,399204732938.30194,399204813798.7255,399204834143.44604,399204983908.88043,399205054213.6979,399204936697.18036,399204914662.28815,399205055654.0858,399205117304.0719,399204806211.4152,399205078708.7363,399204977641.8728,399204652813.37915,-713401370536.3876
0.14499069873744536,-2.3135199962545055e-06,2.2780380381866596,5.480454876518927e-05,0.00035813375408537743,0.0665844958506301,264374298663.3495,264374144803.5331,493958805513.0945,264374305546.75812,264374193396.07043,264374107333.47763,264374087444.72668,264374172636.15564,493958841369.3009,58854946877.09763,58855025299.653206,58855140654.48201,58855122061.86491,58855035135.193565,58855154315.598495,58855203694.56162,58855089360.89992,58855044584.15501,58855279933.899704,58854860548.35513,58855069583.36778,58855175592.51781,58855115476.15364,58855148449.89276,58855121074.575356,21896723544.51954,21896703535.6935,21896650976.089127,21896697675.463497,21896684685.24622,21896703330.74585,21896655699.39207,-179970347802.7354,-179970341176.45355,-179970350947.32407,-179970354607.36182,-179970403872.99902,-179970340461.57428,-179970310734.95117,-179970411504.75537,-179970344892.09332,-179970403581.44055,-179970395350.16266,-179970388896.51025,-179970358313.34085,-179970391587.69064,-409555093012.1582,-59139952198.28857,-59140026336.58115,-59139967679.86157,-59139867791.77056,-59140029863.77589,-59139927793.06137,208181001512.0006,208180950364.6218,208181005370.47153,208180956104.8236,208181001144.42648,399204674195.68036,399204923785.05634,399204571262.83984,399205137231.1883,399205018068.57336,399205039338.29767,399204640169.47534,399204915263.2568,399205010303.9802,399204630194.26904,399204931469.8006,399205185179.8016,399204771781.79834,399204995309.4911,399204758136.847,399205062805.5948,399204633465.0537,399205017876.5163,399205128181.88116,399204746585.0525,399204767126.18176,399204970625.6242,399204971568.1179,399204883276.306,399204949614.2866,399205014264.29785,399204674721.9695,399204725542.0682,399204836024.53204,399204732911.551,399204813770.2513,399204834113.92755,399204983883.014,399205054187.068,399204936668.61896,399204914636.11475,399205055626.17267,399205117277.93933,399204806184.9637,399205078682.6202,399204977617.28046,399204652786.226,-713401370493.0953
0.13124265030935978,-1.870234934599125e-06,3.8159165027748565,5.835609852660113e-05,0.00033547927141570644,0.05124788440175456,264374298670.65817,264374144811.03317,493958805531.9678,264374305553.50916,264374193402.94778,264374107340.37857,264374087451.59302,264374172643.45117,493958841389.3639,58854946882.6205,58855025306.04401,58855140660.5314,58855122067.703445,58855035141.038055,58855154320.83936,58855203700.0524,58855089366.55042,58855044589.624306,58855279939.50475,58854860554.23061,58855069588.80423,58855175598.228386,58855115479.38904,58855148455.65115,58855121080.24471,21896723541.91254,21896703533.14567,21896650973.073524,21896697673.4059,21896684682.957394,21896703327.977943,21896655697.187157,-179970347805.8247,-179970341181.231,-179970350950.67072,-179970354610.37936,-179970403876.3906,-179970340489.3072,-179970310721.76627,-179970411508.14862,-179970344894.8977,-179970403584.648,-179970395353.81296,-179970388899.7576,-179970358316.56955,-179970391591.03067,-409555093028.8318,-59139952202.624306,-59140026340.67865,-59139967682.941505,-59139867795.09778,-59140029867.70922,-59139927796.37794,208181001520.4264,208180950372.29398,208181005378.13718,208180956111.63617,208181001152.22882,399204674218.7879,399204923811.4115,399204571287.86005,399205137256.2653,399205018095.04486,399205039361.7053,399204640192.34155,399204915290.0869,399205010330.5517,399204630220.907,399204931496.6086,399205185206.71893,399204771808.9725,399204995336.0155,399204758146.64575,399205062834.22516,399204633489.9951,399205017903.3392,399205128208.67,399204746611.0595,399204767152.76227,399204970651.4579,399204971595.7186,399204883303.42664,399204949634.68054,399205014290.88837,399204674748.66296,399204725570.44293,399204836051.9268,399204732937.8866,399204813797.6191,399204834141.32336,399204983908.29346,399205054210.9525,399204936695.37036,399204914662.4562,399205055652.05707,399205117302.37476,399204806211.5057,399205078707.6079,399204977641.9052,399204652812.53784,-713401370529.8596
0.13028674484586972,-1.3345896687009773e-06,4.984409197297131,5.554285923415537e-05,0.00038390881754583173,0.08242687244119264,264374298686.89746,264374144826.6859,493958805563.11884,264374305570.32193,264374193418.9383,264374107356.15887,264374087467.35193,264374172660.77417,493958841420.34985,58854946886.723274,58855025310.000404,58855140664.36963,58855122071.54893,58855035146.12775,58855154325.815636,58855203704.803,58855089370.50562,58855044593.64821,58855279943.37723,58854860557.93631,58855069593.41273,58855175602.18715,58855115484.16113,58855148459.15985,58855121084.19711,21896723545.52189,21896703535.023544,21896650977.10163,21896697676.64353,21896684686.03581,21896703331.16795,21896655700.30981,-179970347813.30795,-179970341189.25177,-179970350959.48868,-179970354618.56958,-179970403884.96817,-179970340497.74823,-179970310746.78534,-179970411505.81696,-179970344902.14044,-179970403592.28256,-179970395361.8161,-179970388907.8267,-179970358324.48987,-179970391599.95758,-409555093050.80536,-59139952205.35653,-59140026343.307625,-59139967686.13878,-59139867798.202324,-59140029870.45114,-59139927799.12096,208181001518.80774,208180950370.35345,208181005376.32895,208180956110.41644,208181001150.48718,399204674241.3693,399204923830.66864,399204571307.0532,399205137277.34796,399205018114.3464,399205039384.7703,399204640215.45526,399204915306.7135,399205010349.88416,399204630239.76105,399204931516.3936,399205185225.20966,399204771829.6424,399204995353.7542,399204758184.8766,399205062854.958,399204633511.24396,399205017922.55554,399205128228.1601,399204746630.0389,399204767172.63104,399204970671.7323,399204971613.3462,399204883321.5411,399204949660.21277,399205014310.4613,399204674768.99866,399204725588.3167,399204836071.70984,399204732956.9558,399204813817.9348,399204834162.95605,399204983928.81177,399205054231.4549,399204936714.39844,399204914682.2377,399205055670.8256,399205117323.1264,399204806231.17975,399205078728.2897,399204977660.665,399204652831.70953,-713401370563.3638
