38.58164675532078,189778.36651208502,0.6692054912318418,1077.6488437087312,87.303829734959,40.437455852092995,0.029483123982678664,0.06427935259973588,0.00021498111237369858,0.6970301894904948,0.034274131629863945,0.0780381437916526,0.039863640551580114,0.00042996222474739717,0.05638647461687295,0.1364515831823347,0.0007063665120850096,0.4599367341297872,0.012837443567458001,0.328091889069746,0.03147937716900587,0.030496606369583245,0.11578268480697768,0.0002764042873376125,0.1258867970885415,0.12487331470163693,0.0305273179570652,0.04207487485028101,0.0614845981388778,0.10119468075304812,0.004576026534811584,0.12714597217530174,0.019931820275790057,0.11209729430914284,0.02850035318325604,0.04904640520868524,0.056601455729246644,0.40517797364945796,0.2550597340376524,0.03012806731979976,0.1556463253585578,0.10583213046282362,0.04815576917170849,0.009551303706888609,0.03190933939375326,0.0959429992936335,0.008322840207610331,0.8542735173981143,53813.92564724671,1674.5991523601856,80383.39900494457,308464131.3780289,2417830.664015233,170021.87067350512,67716.91495961427,90576300.4494948,7211614.602315654,308464131.3780289,1761670307822.8826,9302047372.11959,676224238.7282639,292840376.2192193,384537176191.59296,49402.045238168364,2417830.664015233,9302047372.11959,2583138607.0469275,0.0,2309463.8720555264,2686607896.747305,3685.876508706735,170021.87067350512,676224238.7282639,0.0,7297777.452013144,161003.06891680232,201155014.91956636,1571.7234114431376,67716.91495961427,292840376.2192193,2309463.8720555264,161003.06891680232,70050.40533153158,84849687.68075305,2080955.9809588157,90576300.4494948,384537176191.59296,2686607896.747305,201155014.91956636,84849687.68075305,119276200379.33177,7211614.602315654,308464131.3780289,1761670307822.8826,9302047372.11959,676224238.7282639,292840376.2192193,384537176191.59296,47156284036.25116,1761670307822.8826,1.4879040486370716e+16,50308140850821.64,3804316018957.183,1896350258343.6912,2481772838345672.5,204851089.38923866,9302047372.11959,50308140850821.64,10706605276956.102,0.0,9711088094.633335,11118897135028.867,16132361.25536685,676224238.7282639,3804316018957.183,0.0,31252232347.502655,704637484.5438101,874437345300.9277,7649694.642547834,292840376.2192193,1896350258343.6912,9711088094.633335,704637484.5438101,336118643.3621817,406786482823.86945,10085649334.89644,384537176191.59296,2481772838345672.5,11118897135028.867,874437345300.9277,406786482823.86945,577042984966016.1,49402.045238168364,2417830.664015233,9302047372.11959,2583138607.0469275,0.0,2309463.8720555264,2686607896.747305,204851089.38923866,9302047372.11959,50308140850821.64,10706605276956.102,0.0,9711088094.633335,11118897135028.867,55702191.12078867,2583138607.0469275,10706605276956.102,4992295827986.514,0.0,2743104977.8061175,3001964505775.7812,0.0,0.0,0.0,0.0,0.0,0.0,0.0,50727.18998188016,2309463.8720555264,9711088094.633335,2743104977.8061175,0.0,2552307.5499216854,2758072863.5812473,58624090.76978594,2686607896.747305,11118897135028.867,3001964505775.7812,0.0,2758072863.5812473,3361091439948.218,3685.876508706735,170021.87067350512,676224238.7282639,0.0,7297777.452013144,161003.06891680232,201155014.91956636,16132361.25536685,676224238.7282639,3804316018957.183,0.0,31252232347.502655,704637484.5438101,874437345300.9277,0.0,0.0,0.0,0.0,0.0,0.0,0.0,169993.90964650962,7297777.452013144,31252232347.502655,0.0,343798036.40244466,7425448.221737661,9271661865.890083,3800.2902245017044,161003.06891680232,704637484.5438101,0.0,7425448.221737661,178767.96290040232,206847140.89650196,4759373.338073155,201155014.91956636,874437345300.9277,0.0,9271661865.890083,206847140.89650196,273076493128.39185,1571.7234114431376,67716.91495961427,292840376.2192193,2309463.8720555264,161003.06891680232,70050.40533153158,84849687.68075305,7649694.642547834,292840376.2192193,1896350258343.6912,9711088094.633335,704637484.5438101,336118643.3621817,406786482823.86945,50727.18998188016,2309463.8720555264,9711088094.633335,2743104977.8061175,0.0,2552307.5499216854,2758072863.5812473,3800.2902245017044,161003.06891680232,704637484.5438101,0.0,7425448.221737661,178767.96290040232,206847140.89650196,1787.6421485826602,70050.40533153158,336118643.3621817,2552307.5499216854,178767.96290040232,85045.92180829827,96411381.1362059,2177573.813949203,84849687.68075305,406786482823.86945,2758072863.5812473,206847140.89650196,96411381.1362059,124796530914.43788,2080955.9809588157,90576300.4494948,384537176191.59296,2686607896.747305,201155014.91956636,84849687.68075305,119276200379.33177,10085649334.89644,384537176191.59296,2481772838345672.5,11118897135028.867,874437345300.9277,406786482823.86945,577042984966016.1,58624090.76978594,2686607896.747305,11118897135028.867,3001964505775.7812,0.0,2758072863.5812473,3361091439948.218,4759373.338073155,201155014.91956636,874437345300.9277,0.0,9271661865.890083,206847140.89650196,273076493128.39185,2177573.813949203,84849687.68075305,406786482823.86945,2758072863.5812473,206847140.89650196,96411381.1362059,124796530914.43788,3084446013.19465,119276200379.33177,577042984966016.1,3361091439948.218,273076493128.39185,124796530914.43788,178720084217952.12,10.0806793403151,3.2733215033236007,322450.008941538,390.2110193175885,1901365.691471392,13193.368754030897,962.9358127821627,412.34221921931146,546938.4449801911,1.0
0.0755937594617293,584.9462320111469,0.0026074942818364822,40.928466983948766,2.233160694981086,0.06842807587451691,0.0009374600431655901,0.0013591685734460376,8.124898349195924e-05,0.002546771275033609,0.0010082648647050095,0.0014865325154258453,0.0010842249779746287,0.00011489106003146056,0.0012783477778582008,0.0019023792774815463,0.00014724009265055255,0.002762077363608334,0.0006238757165305338,0.0026020591207146122,0.000967680462678361,0.0009529385470708345,0.0017732329246453072,9.212485764481832e-05,0.0018383931915708117,0.0018320391681291893,0.0009534031532553703,0.0011126066965959397,0.0013312767349046716,0.0016713835760471458,0.00037403546776824785,0.0018462333193622958,0.0007745796746263634,0.0017484158131585356,0.0009221698423525668,0.0011968720469070506,0.0012806364899337207,0.002720701562741191,0.002415717508683797,0.0009473431150349235,0.0020090747975965617,0.0017048366393674242,0.001186510467465626,0.0005390285774879019,0.0009740503186606622,0.0016321836502413208,0.0005034836878296574,0.0019553845701056663,76.09019467884397,6.534150172972765,477.9548398150804,1572450.1656295806,103308.73633402787,5341.856322293866,279.0056214947552,386933.6875258893,26026.65201844981,1572450.1656295806,13271499267.173985,418350099.4576602,20675223.48823317,1184606.777569512,1541130658.9881556,1953.9319282536264,103308.73633402787,418350099.4576602,184263381.83302733,1,97445.60704620814,108646954.60060926,100.58594298801964,5341.856322293866,20675223.48823317,1,222158.53705439979,4550.021747630687,5645120.976312605,4.105056809981083,279.0056214947552,1184606.777569512,97445.60704620814,4550.021747630687,285.69926749973416,258919.00154548485,5146.2096314709415,386933.6875258893,1541130658.9881556,108646954.60060926,5645120.976312605,258919.00154548485,316049842.4648247,26026.65201844981,1572450.1656295806,13271499267.173985,418350099.4576602,20675223.48823317,1184606.777569512,1541130658.9881556,346820942.949937,13271499267.173985,276878821776410.5,2903244752760.1265,146156337587.14917,14525157181.173273,19366255518036.703,8921747.420192081,418350099.4576602,2903244752760.1265,843710896832.6582,1,467497926.1495229,494632071210.3561,466019.4798681275,20675223.48823317,146156337587.14917,1,951773820.6671722,21411945.74605481,26021760537.287006,27434.408841500936,1184606.777569512,14525157181.173273,467497926.1495229,21411945.74605481,1609441.2632578188,1612260628.8752794,35099364.89773178,1541130658.9881556,19366255518036.703,494632071210.3561,26021760537.287006,1612260628.8752794,2106579653085.3188,1953.9319282536264,103308.73633402787,418350099.4576602,184263381.83302733,1,97445.60704620814,108646954.60060926,8921747.420192081,418350099.4576602,2903244752760.1265,843710896832.6582,1,467497926.1495229,494632071210.3561,3868951.142998351,184263381.83302733,843710896832.6582,386324166669.16016,1,198530352.4369843,214556573820.4764,1,1,1,1,1,1,1,2082.749244044247,97445.60704620814,467497926.1495229,198530352.4369843,1,118404.75404543479,115591826.12454498,2273586.75211432,108646954.60060926,494632071210.3561,214556573820.4764,1,115591826.12454498,131883296242.95285,100.58594298801964,5341.856322293866,20675223.48823317,1,222158.53705439979,4550.021747630687,5645120.976312605,466019.4798681275,20675223.48823317,146156337587.14917,1,951773820.6671722,21411945.74605481,26021760537.287006,1,1,1,1,1,1,1,4636.071062843962,222158.53705439979,951773820.6671722,1,10977122.375504358,210568.83927212923,260025408.84196877,101.66078079395595,4550.021747630687,21411945.74605481,1,210568.83927212923,5370.637465577769,5676200.053872499,125065.24217759263,5645120.976312605,26021760537.287006,1,260025408.84196877,5676200.053872499,7260341620.665015,4.105056809981083,279.0056214947552,1184606.777569512,97445.60704620814,4550.021747630687,285.69926749973416,258919.00154548485,27434.408841500936,1184606.777569512,14525157181.173273,467497926.1495229,21411945.74605481,1609441.2632578188,1612260628.8752794,2082.749244044247,97445.60704620814,467497926.1495229,198530352.4369843,1,118404.75404543479,115591826.12454498,101.66078079395595,4550.021747630687,21411945.74605481,1,210568.83927212923,5370.637465577769,5676200.053872499,6.021998638959726,285.69926749973416,1609441.2632578188,118404.75404543479,5370.637465577769,496.07703889392684,362580.3184475445,4904.580428505255,258919.00154548485,1612260628.8752794,115591826.12454498,5676200.053872499,362580.3184475445,304738820.34528,5146.2096314709415,386933.6875258893,1541130658.9881556,108646954.60060926,5645120.976312605,258919.00154548485,316049842.4648247,35099364.89773178,1541130658.9881556,19366255518036.703,494632071210.3561,26021760537.287006,1612260628.8752794,2106579653085.3188,2273586.75211432,108646954.60060926,494632071210.3561,214556573820.4764,1,115591826.12454498,131883296242.95285,125065.24217759263,5645120.976312605,26021760537.287006,1,260025408.84196877,5676200.053872499,7260341620.665015,4904.580428505255,258919.00154548485,1612260628.8752794,115591826.12454498,5676200.053872499,362580.3184475445,304738820.34528,5175621.218671843,316049842.4648247,2106579653085.3188,131883296242.95285,7260341620.665015,304738820.34528,315069905609.0389,0.014257729817632554,0.002533492653692989,6062.057464049643,0.9769845772622169,6534.385943146215,535.1866118464823,25.51220236061977,0.9855435376958537,1079.6362045211367,1
0.00700034983113931,-0.0020844417617271356,0.0022068345305206226,0.0,-0.0014314590965055724,0.0037033290620296145,0.00047088835731097224,-0.00019692693590785357,-0.00022909450281113756,0.00022484060110989742,0.0002812126873617252,-0.000511448388542001,-0.0002922122597892229,-0.0005065298497730039,-0.00027103003034599916,-0.002091153387550127,0.00030273205511073016,0.0030857305011647487,-0.0006381855868432517,-0.003356841944420906,-0.001159895198605805,-0.0005673329884346531,-0.00032011435376640845,-0.00012954272573227727,-0.00034353296627496924,0.0010292761673678635,-0.0010255030260023276,-0.0008991092505799189,-0.0006901639312402851,-0.001548130133701926,-0.00116765486370718,0.0006220596965509147,0.00035249754629751624,0.00014608957417596794,0.0004141615799381853,-0.0004017597893510286,-0.00027232112848676426,-0.0002780711773598241,0.0009164000926888243,-0.00033810049164214017,-0.0008805798971389048,0.0003759371502951209,0.0015213835302406698,-0.00024375532888116946,0.0002876496838176387,-0.00011764113016073287,-0.0001642741068192208,0.000306111900075856,-0.0022910682131990225,-0.005703285751134089,0.0030320607771763264,-0.0022493091923450944,-0.003463864809297776,-0.0005106775557338209,-0.001062225092243801,-0.0021728363643323217,0.003258019843341763,-0.0022493091923450944,0.0006678761385372232,0.0013181087481590513,-4.7799881087386666e-05,-1.0731159744793539e-05,0.00019088781733485845,0.012879284076001545,-0.003463864809297776,0.0013181087481590513,0.02141056411617089,0.0,-0.0023643107705285963,-0.0018855172988362229,-0.00026315518049833746,-0.0005106775557338209,-4.7799881087386666e-05,0.0,0.0009240813221196901,-0.00011331922705079377,0.00015300965731810043,0.0027575031834635435,-0.001062225092243801,-1.0731159744793539e-05,-0.0023643107705285963,-0.00011331922705079377,-0.0009011989869519743,0.00019938267045678675,0.004670743503750798,-0.0021728363643323217,0.00019088781733485845,-0.0018855172988362229,0.00015300965731810043,0.00019938267045678675,-0.0007154541723626528,0.003258019843341763,-0.0022493091923450944,0.0006678761385372232,0.0013181087481590513,-4.7799881087386666e-05,-1.0731159744793539e-05,0.00019088781733485845,-0.004095605394714536,0.0006678761385372232,0.00028990648490862295,0.0006963960066744957,-0.0001347993628928521,0.0003339832438403161,1.0117162202482101e-05,-0.011174055837169985,0.0013181087481590513,0.0006963960066744957,-0.021056334321789695,0.0,0.001762502853195171,0.001258020876406811,0.001439382857856643,-4.7799881087386666e-05,-0.0001347993628928521,0.0,-0.00030899649951958197,-0.0001616782471502649,-4.21567491982968e-05,0.0007589292599327254,-1.0731159744793539e-05,0.0003339832438403161,0.001762502853195171,-0.0001616782471502649,-6.467635829979062e-05,-0.00029370392330285765,-0.0008191187038456281,0.00019088781733485845,1.0117162202482101e-05,0.001258020876406811,-4.21567491982968e-05,-0.00029370392330285765,0.000837939912441842,0.012879284076001545,-0.003463864809297776,0.0013181087481590513,0.02141056411617089,0.0,-0.0023643107705285963,-0.0018855172988362229,-0.011174055837169985,0.0013181087481590513,0.0006963960066744957,-0.021056334321789695,0.0,0.001762502853195171,0.001258020876406811,-9.955849483738084e-05,0.02141056411617089,-0.021056334321789695,0.03724098006224228,0.0,0.03143076954011061,0.01267685982535797,0.0,0.0,0.0,0.0,0.0,0.0,0.0,0.0064898989449538045,-0.0023643107705285963,0.001762502853195171,0.03143076954011061,0.0,-0.0026608352600949853,2.1783841847054786e-05,0.0018859885905785582,-0.0018855172988362229,0.001258020876406811,0.01267685982535797,0.0,2.1783841847054786e-05,-0.0010526429587704481,-0.00026315518049833746,-0.0005106775557338209,-4.7799881087386666e-05,0.0,0.0009240813221196901,-0.00011331922705079377,0.00015300965731810043,0.001439382857856643,-4.7799881087386666e-05,-0.0001347993628928521,0.0,-0.00030899649951958197,-0.0001616782471502649,-4.21567491982968e-05,0.0,0.0,0.0,0.0,0.0,0.0,0.0,0.0038566523949436554,0.0009240813221196901,-0.00030899649951958197,0.0,-0.0054222401622531285,0.000986100034918858,0.0015553129799793994,-0.00045959314860610073,-0.00011331922705079377,-0.0001616782471502649,0.0,0.000986100034918858,0.0003463435577899286,-0.0004062089778492592,-0.0008675266477105102,0.00015300965731810043,-4.21567491982968e-05,0.0,0.0015553129799793994,-0.0004062089778492592,-0.0002711567979083551,0.0027575031834635435,-0.001062225092243801,-1.0731159744793539e-05,-0.0023643107705285963,-0.00011331922705079377,-0.0009011989869519743,0.00019938267045678675,0.0007589292599327254,-1.0731159744793539e-05,0.0003339832438403161,0.001762502853195171,-0.0001616782471502649,-6.467635829979062e-05,-0.00029370392330285765,0.0064898989449538045,-0.0023643107705285963,0.001762502853195171,0.03143076954011061,0.0,-0.0026608352600949853,2.1783841847054786e-05,-0.00045959314860610073,-0.00011331922705079377,-0.0001616782471502649,0.0,0.000986100034918858,0.0003463435577899286,-0.0004062089778492592,0.002108292034088678,-0.0009011989869519743,-6.467635829979062e-05,-0.0026608352600949853,0.0003463435577899286,-0.0035804488707213613,0.0013637420698905094,-0.0029654419837747466,0.00019938267045678675,-0.00029370392330285765,2.1783841847054786e-05,-0.0004062089778492592,0.0013637420698905094,0.0004438702688994633,0.004670743503750798,-0.0021728363643323217,0.00019088781733485845,-0.0018855172988362229,0.00015300965731810043,0.00019938267045678675,-0.0007154541723626528,-0.0008191187038456281,0.00019088781733485845,1.0117162202482101e-05,0.001258020876406811,-4.21567491982968e-05,-0.00029370392330285765,0.000837939912441842,0.0018859885905785582,-0.0018855172988362229,0.001258020876406811,0.01267685982535797,0.0,2.1783841847054786e-05,-0.0010526429587704481,-0.0008675266477105102,0.00015300965731810043,-4.21567491982968e-05,0.0,0.0015553129799793994,-0.0004062089778492592,-0.0002711567979083551,-0.0029654419837747466,0.00019938267045678675,-0.00029370392330285765,2.1783841847054786e-05,-0.0004062089778492592,0.0013637420698905094,0.0004438702688994633,0.004830685156711886,-0.0007154541723626528,0.000837939912441842,-0.0010526429587704481,-0.0002711567979083551,0.0004438702688994633,-0.004343033872651404,0.004724450464571354,-5.59214736221656e-05,0.00035730317842355133,-0.0013466658694051361,0.00027879483466157197,0.0013599051517234851,0.00030065795518920466,-0.0018632485406115766,0.0012483444507883,0.0
